#############################################################################
## Copyright (c) 1996, Carnegie Mellon University, Cambridge University,
## Ronald Rosenfeld and Philip Clarkson
#############################################################################
=============================================================================
===============  This file was produced by the CMU-Cambridge  ===============
===============     Statistical Language Modeling Toolkit     ===============
=============================================================================
This is a 3-gram language model, based on a vocabulary of 103 words,
  which begins "ADV", "ADVNE", "ADVPAS"...
This is an OPEN-vocabulary model (type 1)
  (OOVs were mapped to UNK, which is treated as any other vocabulary word)
Good-Turing discounting was applied.
1-gram frequency of frequency : 0 
2-gram frequency of frequency : 521 265 163 132 103 94 85 
3-gram frequency of frequency : 25354 10316 6054 4007 3145 2661 2403 
1-gram discounting ratios : 
2-gram discounting ratios : 
3-gram discounting ratios : 0.00 0.00 0.00 0.00 
This file is in the ARPA-standard format introduced by Doug Paul.

p(wd3|wd1,wd2)= if(trigram exists)           p_3(wd1,wd2,wd3)
                else if(bigram w1,w2 exists) bo_wt_2(w1,w2)*p(wd3|wd2)
                else                         p(wd3|w2)

p(wd2|wd1)= if(bigram exists) p_2(wd1,wd2)
            else              bo_wt_1(wd1)*p_1(wd2)

All probs and back-off weights (bo_wt) are given in log10 form.

Data formats:

Beginning of data mark: \data\
ngram 1=nr            # number of 1-grams
ngram 2=nr            # number of 2-grams
ngram 3=nr            # number of 3-grams

\1-grams:
p_1     wd_1 bo_wt_1
\2-grams:
p_2     wd_1 wd_2 bo_wt_2
\3-grams:
p_3     wd_1 wd_2 wd_3 

end of data mark: \end\

\data\
ngram 1=104
ngram 2=4364
ngram 3=47594

\1-grams:
-99.0000 <UNK>	0.0000
-1.5024 ADV	-2.0819
-2.2053 ADVNE	-3.7029
-2.4188 ADVPAS	-2.1121
-2.1603 AFP	-2.0135
-1.7841 AFS	-2.0451
-3.3003 AINDFP	-2.0807
-3.1512 AINDFS	-2.3961
-2.9848 AINDMP	-1.7178
-3.2731 AINDMS	-2.6150
-2.0196 AMP	-2.2367
-1.6636 AMS	-1.9214
-1.3300 CHIF	-2.7929
-1.6969 COCO	-1.3844
-1.8633 COSUB	-2.6408
-2.0583 DETFP	-4.4759
-1.3448 DETFS	-3.8071
-1.8631 DETMP	-3.7185
-1.4126 DETMS	-3.5573
-4.6193 DINTFP	-2.1019
-4.1845 DINTFS	-1.8859
-4.6581 DINTMP	-1.6811
-4.0779 DINTMS	-1.9039
-1.6936 MOTINC	-1.8443
-1.7166 NFP	-2.0959
-1.2372 NFS	-2.2549
-1.5281 NMP	-2.0851
-1.1586 NMS	-2.3056
-3.8133 PDEMFP	-1.9475
-2.9313 PDEMFS	-2.5400
-3.3424 PDEMMP	-2.1104
-2.5889 PDEMMS	-2.9909
-4.1326 PINDFP	-1.4684
-3.3421 PINDFS	-2.2343
-3.7546 PINDMP	-1.7485
-2.4345 PINDMS	-2.1830
-4.6028 PINTFP	-2.5110
-4.9423 PINTFS	-1.5293
-99.0000 PINTMP	0.0000
-3.2915 PINTMS	-2.3391
-2.9045 PPER1S	-2.6237
-3.0283 PPER1P	-2.3817
-5.1107 PPER2S	-0.3349
-3.5522 PPER2P	-1.8128
-2.8091 PPER3FS	-2.4175
-3.4520 PPER3FP	-2.0682
-2.1467 PPER3MS	-2.8845
-2.8512 PPER3MP	-2.5388
-3.4101 PPOBJFP	-2.3615
-2.9049 PPOBJFS	-2.2021
-2.5812 PPOBJMP	-2.3516
-2.4769 PPOBJMS	-2.5426
-5.0658 PREFFP	-2.0872
-3.2075 PREFFS	-3.3150
-2.9529 PREFMP	-3.3543
-2.3329 PREFMS	-3.7634
-3.2720 PRELFP	-2.0442
-2.5188 PRELFS	-2.7747
-2.6940 PRELMP	-2.3540
-2.5108 PRELMS	-2.6317
-1.3902 PREP	-3.5964
-1.1932 PREPADE	-3.4313
-2.3946 PREPAU	-3.0649
-2.6653 PREPAUX	-3.1932
-2.0260 PREPDES	-3.4673
-2.0319 PREPDU	-3.1564
-3.2486 V1P	-1.3456
-2.9492 V1S	-1.7662
-3.5140 V2P	-1.3645
-4.4239 V2S	-0.6617
-1.6842 V3S	-2.1567
-2.1606 V3P	-2.0460
-3.6504 VA1P	-2.3688
-3.4513 VA1S	-2.5285
-4.3562 VA2P	-1.4708
-5.1904 VA2S	-0.8987
-2.5205 VA3P	-2.9789
-2.0200 VA3S	-2.8590
-3.3058 VAINF	-4.1230
-3.8356 VE1P	-1.6869
-3.7641 VE1S	-2.0257
-4.5391 VE2P	-0.9591
-5.0221 VE2S	-0.5300
-2.5350 VE3P	-2.9294
-2.0208 VE3S	-2.5666
-2.8677 VEINF	-2.4345
-1.7573 VINF	-2.2326
-2.6460 VPPFP	-2.1298
-2.3436 VPPFS	-2.2953
-2.3974 VPPMP	-2.0565
-1.7756 VPPMS	-2.1938
-2.4845 VPPRE	-1.8316
-2.3280 XFAMIL	-1.8558
-3.8318 XPAYFP	-1.5041
-2.3544 XPAYFS	-1.6217
-3.4287 XPAYMP	-1.7511
-2.7693 XPAYMS	-1.8040
-2.8487 XPREF	-1.5985
-2.1566 XPREM	-2.3175
-2.3314 XSOC	-1.6429
-2.3797 XVILLE	-1.6918
-0.9935 YPFAI	-2.6796
-1.4660 YPFOR	-4.9972
-1.1369 ZTRM	-3.4742

\2-grams:
-1.1738 ADV ADV -0.1059
-2.7436 ADV ADVNE -0.5548
-2.1254 ADV ADVPAS -0.3914
-1.7300 ADV AFP -0.4081
-1.4708 ADV AFS -0.6324
-3.2499 ADV AINDFP 0.2266
-3.1032 ADV AINDFS -0.1134
-2.9247 ADV AINDMP -0.2822
-3.2140 ADV AINDMS -0.7067
-1.6551 ADV AMP -0.3629
-1.1847 ADV AMS -0.5099
-1.6759 ADV CHIF -0.5846
-2.1094 ADV COCO -0.7563
-1.4748 ADV COSUB -0.8017
-2.0252 ADV DETFP -0.4454
-1.4347 ADV DETFS -0.2396
-1.8891 ADV DETMP -0.2336
-1.4551 ADV DETMS -0.4301
-4.6083 ADV DINTFP -0.0389
-4.2155 ADV DINTFS 0.0190
-4.7084 ADV DINTMP -0.1748
-4.2422 ADV DINTMS 0.0127
-2.2645 ADV MOTINC -0.0914
-3.1190 ADV NFP -0.1302
-1.7336 ADV NFS -0.3544
-2.7745 ADV NMP -0.0967
-1.7119 ADV NMS -0.2613
-3.5043 ADV PDEMFP -0.5692
-2.6716 ADV PDEMFS -0.5745
-3.2073 ADV PDEMMP -0.5053
-2.8865 ADV PDEMMS -0.0867
-4.4238 ADV PINDFP 0.0000
-3.5945 ADV PINDFS -1.2054
-3.9145 ADV PINDMP -0.4899
-2.4628 ADV PINDMS -0.5949
-4.2765 ADV PINTMS -0.4988
-3.2186 ADV PPER1S 0.0087
-3.4139 ADV PPER1P -0.2726
-4.1270 ADV PPER2P -0.3018
-3.2837 ADV PPER3FS -0.3590
-3.8968 ADV PPER3FP -0.0046
-2.6845 ADV PPER3MS -0.6178
-3.3022 ADV PPER3MP -0.7054
-4.9637 ADV PPOBJFP 0.0000
-3.2665 ADV PPOBJFS -1.0670
-2.5853 ADV PPOBJMP -0.8190
-2.7080 ADV PPOBJMS -0.8996
-2.0573 ADV PREFMS -0.5845
-4.3617 ADV PRELFP 0.0000
-3.9043 ADV PRELFS -0.2608
-3.5186 ADV PRELMP -0.0845
-2.9322 ADV PRELMS -0.3616
-1.2266 ADV PREP -0.7724
-1.0488 ADV PREPADE -0.2447
-2.2426 ADV PREPAU -0.0446
-2.4467 ADV PREPAUX -0.0285
-2.1824 ADV PREPDES -1.0179
-2.4302 ADV PREPDU -0.1086
-3.8993 ADV V1P -0.4925
-4.3839 ADV V1S -0.3066
-4.2647 ADV V2P -0.2007
-2.4378 ADV V3S -0.6222
-2.7491 ADV V3P -0.3975
-4.8176 ADV VA1S -1.3185
-3.1676 ADV VA3P -0.4593
-1.6691 ADV VA3S -1.1548
-2.8462 ADV VAINF -1.1623
-3.0672 ADV VE3P -0.3845
-2.6986 ADV VE3S -0.8536
-2.5818 ADV VEINF -0.4768
-1.5585 ADV VINF -0.1403
-2.0169 ADV VPPFP -0.2938
-1.6866 ADV VPPFS -0.2782
-1.7440 ADV VPPMP -0.3266
-1.1710 ADV VPPMS -1.4293
-3.2427 ADV VPPRE -0.3257
-3.4818 ADV XFAMIL 0.0499
-2.6307 ADV XPAYFS -0.2702
-4.3336 ADV XPAYMS -0.0630
-3.5811 ADV XPREF -0.0449
-2.8708 ADV XPREM -0.0294
-3.2373 ADV XSOC -0.2001
-3.2329 ADV XVILLE -0.1139
-0.7884 ADV YPFAI -0.7692
-1.4656 ADV YPFOR 0.3559
-3.1770 ADV ZTRM -2.6618
-1.4665 ADVNE ADV -2.3080
-4.1146 ADVNE ADVNE 0.0000
-3.9745 ADVNE ADVPAS -0.2927
-3.8241 ADVNE AFP -0.0955
-4.1816 ADVNE COSUB 0.0000
-2.7798 ADVNE MOTINC -0.1088
-3.6445 ADVNE NMS -0.1072
-3.4546 ADVNE PINDMS -1.6746
-3.6587 ADVNE PPER1P -0.9751
-3.8687 ADVNE PPER2P -0.6607
-2.8283 ADVNE PPOBJFS -1.1197
-1.5494 ADVNE PPOBJMP -1.8430
-1.3838 ADVNE PPOBJMS -1.7912
-2.1609 ADVNE PREFFS -2.5619
-1.9003 ADVNE PREFMP -1.7482
-1.4800 ADVNE PREFMS -1.7366
-1.9459 ADVNE V1P -1.2486
-1.7488 ADVNE V1S -1.1978
-2.4022 ADVNE V2P -1.1452
-3.6173 ADVNE V2S -0.3433
-0.5640 ADVNE V3S -1.3358
-1.0821 ADVNE V3P -1.2625
-2.2090 ADVNE VA1P -1.0032
-2.0690 ADVNE VA1S -1.1396
-3.0136 ADVNE VA2P -0.6516
-3.8687 ADVNE VA2S -0.3676
-1.2975 ADVNE VA3P -1.4247
-0.8840 ADVNE VA3S -2.1055
-2.4750 ADVNE VAINF -0.9536
-2.5252 ADVNE VE1P -1.2605
-2.4360 ADVNE VE1S -1.2076
-3.2666 ADVNE VE2P -0.7154
-4.0219 ADVNE VE2S -0.6066
-1.3794 ADVNE VE3P -1.1637
-0.7602 ADVNE VE3S -1.2442
-2.3884 ADVNE VEINF -0.9537
-2.2446 ADVNE VINF -0.7094
-1.9133 ADVNE VPPRE -1.1302
-3.2939 ADVNE XVILLE -0.0702
-2.3337 ADVNE YPFAI -1.1808
-0.7992 ADVPAS ADV -1.1070
-3.6213 ADVPAS ADVNE -0.6855
-4.1442 ADVPAS ADVPAS 0.0000
-2.4533 ADVPAS AFP -0.8267
-2.0575 ADVPAS AFS -0.7758
-3.1781 ADVPAS AINDFP 0.4171
-3.5421 ADVPAS AINDFS 0.3230
-2.6719 ADVPAS AINDMP -0.0434
-2.1128 ADVPAS AMP -1.2016
-1.3810 ADVPAS AMS -1.1485
-2.5065 ADVPAS CHIF -0.5267
-2.4902 ADVPAS COCO -0.4857
-1.5028 ADVPAS COSUB -0.4091
-2.0056 ADVPAS DETFP -0.7276
-1.2074 ADVPAS DETFS -0.3183
-1.7885 ADVPAS DETMP -0.2908
-1.2051 ADVPAS DETMS -0.6570
-3.9012 ADVPAS DINTFS -0.0269
-3.9012 ADVPAS DINTMS 0.0000
-2.5412 ADVPAS MOTINC -0.1754
-3.9224 ADVPAS NFP 0.0000
-1.7864 ADVPAS NFS -1.0963
-3.2148 ADVPAS NMP -0.2279
-1.5463 ADVPAS NMS -1.1800
-3.5332 ADVPAS PDEMFP -0.0322
-2.4172 ADVPAS PDEMFS -0.5982
-3.2839 ADVPAS PDEMMP -0.2369
-2.9333 ADVPAS PDEMMS -0.7316
-4.0193 ADVPAS PINDFP 0.0000
-3.7320 ADVPAS PINDFS -0.4593
-2.8034 ADVPAS PINDMS -0.6938
-3.6919 ADVPAS PINTMS -0.8165
-3.9446 ADVPAS PPER1P -0.7999
-3.6793 ADVPAS PPER3FS -0.8186
-3.6213 ADVPAS PPER3MS -0.1820
-3.8810 ADVPAS PPER3MP -0.3391
-2.9539 ADVPAS PPOBJFS -0.6575
-2.2330 ADVPAS PPOBJMP -0.7085
-2.1904 ADVPAS PPOBJMS -1.1641
-2.2026 ADVPAS PREFFS -1.7711
-2.6894 ADVPAS PREFMS -0.9106
-4.1820 ADVPAS PRELMP 0.0000
-3.0502 ADVPAS PRELMS -0.0774
-1.3625 ADVPAS PREP -0.3380
-0.8802 ADVPAS PREPADE -0.4422
-2.2199 ADVPAS PREPAU -0.5555
-2.3871 ADVPAS PREPAUX -0.3146
-2.4902 ADVPAS PREPDES -0.8173
-2.4562 ADVPAS PREPDU -0.3963
-3.9012 ADVPAS V3S 0.0000
-2.7920 ADVPAS VAINF -1.2281
-2.0766 ADVPAS VEINF -0.2078
-1.2777 ADVPAS VINF -0.3111
-2.1428 ADVPAS VPPFP -0.5194
-1.7362 ADVPAS VPPFS -0.6018
-1.8566 ADVPAS VPPMP -0.5859
-0.8708 ADVPAS VPPMS -0.9488
-3.5158 ADVPAS XFAMIL -0.0058
-3.8254 ADVPAS XPREF 0.0000
-3.1703 ADVPAS XPREM -0.0479
-3.2691 ADVPAS XVILLE -0.0296
-1.3090 ADVPAS YPFAI -0.7543
-1.5597 ADVPAS YPFOR 1.3664
-3.5244 ADVPAS ZTRM -1.3979
-1.9659 AFP ADV -0.8044
-2.1630 AFP ADVNE -1.5395
-1.5217 AFP AFP -0.0905
-3.6306 AFP AFS -0.3227
-4.1017 AFP AINDFP 0.0000
-4.1394 AFP AINDFS 0.1051
-4.0669 AFP AINDMP -0.3381
-4.2778 AFP AINDMS -0.1658
-3.0255 AFP AMS -0.2035
-3.0788 AFP CHIF -0.0778
-1.1228 AFP COCO -1.1022
-1.6974 AFP COSUB -0.4663
-2.4405 AFP DETFP 0.2269
-2.2199 AFP DETFS 0.0637
-3.2339 AFP DETMP -0.1412
-2.7192 AFP DETMS -0.0850
-2.5566 AFP MOTINC -0.1234
-0.7255 AFP NFP -0.2994
-3.2413 AFP NFS -0.1230
-3.3613 AFP NMP -0.1497
-3.1744 AFP NMS -0.3615
-3.9504 AFP PDEMFP 0.0000
-4.0839 AFP PDEMFS -0.0770
-4.0839 AFP PDEMMS -0.2593
-4.2266 AFP PINDFS -0.4403
-3.6068 AFP PINDMS -0.2846
-3.0180 AFP PINTMS -1.8195
-4.2778 AFP PPER1P 0.0000
-4.0048 AFP PPER3FP 0.0000
-3.4733 AFP PPER3MS -0.3247
-4.4027 AFP PPER3MP 0.0000
-3.6623 AFP PPOBJFP -0.3383
-4.0195 AFP PPOBJFS -0.2076
-2.7899 AFP PPOBJMP -0.9396
-2.8107 AFP PPOBJMS -0.9203
-2.3878 AFP PREFMS -0.7238
-1.8670 AFP PRELFP -0.4973
-3.6558 AFP PRELFS -0.2209
-2.8712 AFP PRELMP -1.1494
-3.0225 AFP PRELMS -0.5637
-1.1923 AFP PREP -0.4803
-1.0964 AFP PREPADE -0.3533
-2.2396 AFP PREPAU -0.2831
-2.2778 AFP PREPAUX -0.0543
-1.9603 AFP PREPDES -0.2752
-1.8035 AFP PREPDU -0.2875
-4.4405 AFP V2S 0.0000
-2.3069 AFP V3S -0.5188
-1.7517 AFP V3P -0.6169
-1.9481 AFP VA3P -0.8564
-2.4776 AFP VA3S -0.7605
-1.9526 AFP VE3P -0.8510
-2.4920 AFP VE3S -0.4856
-3.6068 AFP VEINF -0.2591
-3.1535 AFP VINF -0.1139
-1.7908 AFP VPPFP -0.5953
-3.3146 AFP VPPFS -0.2317
-3.3420 AFP VPPMP -0.2060
-3.1434 AFP VPPMS -0.3905
-2.2989 AFP VPPRE -0.2822
-3.9504 AFP XFAMIL -0.1739
-4.0669 AFP XPAYFS -0.0569
-4.4027 AFP XPREF 0.0000
-3.4862 AFP XPREM -0.3393
-3.4027 AFP XSOC -0.0402
-4.0505 AFP XVILLE -0.2141
-0.6194 AFP YPFAI -0.1446
-0.9135 AFP YPFOR 0.4617
-2.5262 AFP ZTRM -2.6546
-2.0203 AFS ADV -0.5149
-2.1054 AFS ADVNE -1.5641
-4.3140 AFS ADVPAS -1.3950
-3.6004 AFS AFP -0.3531
-1.5304 AFS AFS -0.2989
-4.4601 AFS AINDFP -0.1574
-3.9830 AFS AINDFS 0.3909
-3.9338 AFS AINDMP -0.2242
-3.9442 AFS AMP -0.0618
-3.4724 AFS AMS -0.1789
-2.8776 AFS CHIF -0.2788
-1.2361 AFS COCO -0.9017
-1.7633 AFS COSUB -0.4646
-3.2863 AFS DETFP -0.3059
-2.0449 AFS DETFS 0.0181
-3.0991 AFS DETMP 0.0748
-2.5268 AFS DETMS -0.3777
-2.1151 AFS MOTINC -0.2731
-3.8206 AFS NFP -0.1203
-0.6653 AFS NFS -0.1975
-3.8166 AFS NMP -0.1525
-2.8423 AFS NMS -0.4270
-3.6004 AFS PDEMFS -0.1420
-4.6820 AFS PDEMMP -0.3819
-3.9604 AFS PDEMMS -0.2538
-4.5793 AFS PINDFS -0.3996
-3.6459 AFS PINDMS -0.2551
-4.3667 AFS PPER1S 0.0000
-4.0192 AFS PPER1P -0.2074
-3.5317 AFS PPER3FS -0.2617
-3.5256 AFS PPER3MS -0.7357
-4.3266 AFS PPER3MP -0.0090
-2.7710 AFS PPOBJMP -1.0449
-2.9087 AFS PPOBJMS -1.0353
-3.6849 AFS PREFMP -2.0553
-2.2878 AFS PREFMS -0.5970
-3.5505 AFS PRELFP -0.6286
-1.8476 AFS PRELFS -0.2360
-3.6820 AFS PRELMP -1.1215
-3.6302 AFS PRELMS -0.7312
-1.2422 AFS PREP -0.6914
-1.0361 AFS PREPADE -0.7826
-2.2920 AFS PREPAU -0.0534
-2.4575 AFS PREPAUX -0.2284
-1.6310 AFS PREPDES -0.1225
-1.6832 AFS PREPDU -0.1982
-1.7371 AFS V3S -1.1388
-2.5592 AFS V3P -0.4528
-2.7352 AFS VA3P -0.5945
-1.9929 AFS VA3S -1.3591
-2.7992 AFS VE3P -0.3314
-1.9162 AFS VE3S -1.2477
-3.5636 AFS VEINF -0.5676
-3.2379 AFS VINF -0.1084
-3.5276 AFS VPPFP -0.2957
-1.9598 AFS VPPFS -0.8577
-3.3475 AFS VPPMP -0.2832
-3.0560 AFS VPPMS -0.5685
-2.5342 AFS VPPRE -0.2508
-3.5932 AFS XFAMIL -0.3819
-2.6674 AFS XPAYFS -0.2032
-4.3017 AFS XPAYMS -0.0567
-3.0734 AFS XPREF 0.0003
-3.4481 AFS XPREM -0.1641
-2.8214 AFS XSOC 0.0319
-3.6004 AFS XVILLE -0.0885
-0.6359 AFS YPFAI -0.3491
-0.9698 AFS YPFOR 0.1418
-2.5421 AFS ZTRM -3.0149
-2.4443 AINDFP ADV -0.2922
-1.3935 AINDFP AFP -0.5196
-2.1572 AINDFP CHIF -0.4375
-2.5785 AINDFP COCO -0.1147
-2.6176 AINDFP COSUB 0.0000
-1.0483 AINDFP DETFP -0.4537
-3.1114 AINDFP DETFS -0.4908
-2.3974 AINDFP MOTINC 0.1019
-0.1134 AINDFP NFP -0.7355
-3.2627 AINDFP NFS 0.0000
-3.2627 AINDFP NMP 0.0000
-2.5637 AINDFP NMS -0.6987
-2.4228 AINDFP PDEMFP -0.2082
-3.0866 AINDFP PRELMP 0.0000
-2.1600 AINDFP PREP -0.1733
-2.0866 AINDFP PREPADE -0.6262
-3.1658 AINDFP VA3P -0.2786
-2.5094 AINDFP VE3P -0.5288
-3.3005 AINDFP VEINF 0.0000
-1.9252 AINDFP VPPFP -0.0701
-2.8234 AINDFP VPPMS -0.2008
-1.5968 AINDFP YPFAI -0.3119
-1.9955 AINDFP YPFOR 2.6837
-2.5368 AINDFS ADV -0.3330
-3.2122 AINDFS ADVNE 0.0000
-1.2990 AINDFS AFS -0.3395
-2.6848 AINDFS COCO -0.1077
-3.0438 AINDFS COSUB 0.0000
-2.8575 AINDFS DETFP 0.3245
-0.9391 AINDFS DETFS -0.7320
-2.2896 AINDFS MOTINC -0.1137
-0.1046 AINDFS NFS -0.4499
-2.4657 AINDFS PREP -0.0861
-2.6649 AINDFS PREPADE -0.1601
-2.4616 AINDFS VPPFS -0.2075
-2.5565 AINDFS XPAYFS -0.0533
-1.8485 AINDFS YPFAI -0.3373
-2.1162 AINDFS YPFOR 2.6553
-2.0240 AINDMP ADV -0.4854
-2.1272 AINDMP ADVNE -1.0556
-1.3912 AINDMP AMP -0.3773
-3.2772 AINDMP AMS -0.4211
-1.8301 AINDMP CHIF -0.3957
-2.1832 AINDMP COCO -0.2341
-2.2026 AINDMP COSUB -0.0832
-2.4219 AINDMP DETFS -0.5907
-1.1976 AINDMP DETMP -0.6866
-2.4400 AINDMP DETMS -0.2574
-2.2342 AINDMP MOTINC -0.1129
-3.2595 AINDMP NFP 0.0000
-2.0478 AINDMP NFS -0.4826
-0.2358 AINDMP NMP -0.5652
-2.2901 AINDMP NMS -0.3892
-1.5258 AINDMP PDEMMP -0.8203
-2.9947 AINDMP PPOBJMP -0.1478
-2.1536 AINDMP PPOBJMS -1.2030
-2.0686 AINDMP PREFMP -0.0588
-3.1803 AINDMP PRELFS -0.4745
-2.0150 AINDMP PREP -0.1644
-1.9031 AINDMP PREPADE -0.3810
-2.9762 AINDMP PREPAU -0.0831
-3.5783 AINDMP PREPAUX 0.0000
-2.8314 AINDMP PREPDES -0.5271
-3.2957 AINDMP PREPDU 0.1477
-3.1661 AINDMP V3S 0.0000
-1.4759 AINDMP V3P -0.3732
-1.9275 AINDMP VA3P -0.5211
-2.0742 AINDMP VE3P -0.7022
-3.2595 AINDMP VE3S 0.0000
-2.6843 AINDMP VINF -0.1102
-1.8664 AINDMP VPPMP -0.1072
-2.2595 AINDMP VPPMS -0.1739
-3.2772 AINDMP VPPRE 0.0000
-1.1616 AINDMP YPFAI -0.4653
-1.6747 AINDMP YPFOR 2.0474
-3.4270 AINDMP ZTRM -0.9294
-2.3122 AINDMS AMP -1.1180
-1.8834 AINDMS AMS -0.8924
-1.5010 AINDMS CHIF -0.8974
-1.7188 AINDMS DETMS -0.8865
-2.9377 AINDMS MOTINC 0.0000
-0.0417 AINDMS NMS -1.0997
-2.2722 AINDMS PDEMMS -2.0782
-2.1114 AINDMS PREPADE -0.9715
-3.3277 AINDMS V3S 0.0000
-2.7780 AINDMS XPAYMS 0.0205
-2.9712 AINDMS XVILLE 0.0000
-2.3914 AINDMS YPFAI -0.5270
-1.9330 AMP ADV -0.8480
-2.0596 AMP ADVNE -1.4245
-4.3922 AMP AFS 0.0000
-4.1602 AMP AINDFP -0.0457
-4.1313 AMP AINDFS -0.2199
-3.6183 AMP AINDMP 0.0749
-4.4465 AMP AINDMS -0.1378
-1.6438 AMP AMP -0.2803
-3.2516 AMP AMS -0.2976
-2.5478 AMP CHIF -0.6371
-1.1691 AMP COCO -0.9193
-1.7346 AMP COSUB -0.5701
-3.1202 AMP DETFP -0.4894
-2.2163 AMP DETFS 0.0999
-2.3096 AMP DETMP -0.2716
-2.5359 AMP DETMS -0.0765
-2.2088 AMP MOTINC -0.4171
-3.5973 AMP NFP -0.0903
-3.2442 AMP NFS -0.1039
-0.7116 AMP NMP -0.1380
-2.9902 AMP NMS -0.2306
-3.9792 AMP PDEMFP -0.1216
-3.2983 AMP PDEMMP -0.0210
-3.8823 AMP PDEMMS -0.2058
-4.4465 AMP PINDMP 0.0000
-3.4765 AMP PINDMS -0.2861
-4.5812 AMP PPER1S 0.0000
-4.5434 AMP PPER3FS 0.0000
-3.5734 AMP PPER3MS -0.2764
-3.9599 AMP PPER3MP -0.2448
-3.6314 AMP PPOBJFS -0.6469
-2.5612 AMP PPOBJMP -0.3265
-2.6226 AMP PPOBJMS -1.1653
-2.7316 AMP PREFMP -2.4721
-2.1704 AMP PREFMS -1.6142
-3.8302 AMP PRELFS -0.2775
-1.7794 AMP PRELMP -0.2620
-3.5327 AMP PRELMS -0.6295
-1.2807 AMP PREP -0.6084
-1.0452 AMP PREPADE -0.6649
-2.3085 AMP PREPAU -0.1553
-2.4209 AMP PREPAUX 0.0118
-1.9966 AMP PREPDES -0.3485
-1.8544 AMP PREPDU -0.2172
-4.1913 AMP V1P -0.2504
-3.9892 AMP V2S -0.1235
-2.3811 AMP V3S -0.4930
-1.5806 AMP V3P -0.9808
-1.7631 AMP VA3P -1.1606
-2.6523 AMP VA3S -0.7174
-4.1041 AMP VAINF -0.3243
-1.8746 AMP VE3P -0.9400
-2.5024 AMP VE3S -0.6711
-3.2802 AMP VEINF -0.3679
-3.0736 AMP VINF -0.1416
-3.7250 AMP VPPFP -0.2780
-3.3531 AMP VPPFS -0.2667
-1.7754 AMP VPPMP -0.3337
-3.2983 AMP VPPMS -0.3989
-2.3450 AMP VPPRE -0.3917
-4.0098 AMP XFAMIL -0.0975
-4.2247 AMP XPAYFS -0.3409
-4.4185 AMP XPAYMP 0.0000
-4.2609 AMP XPREF -0.0431
-3.3625 AMP XPREM -0.3291
-3.3130 AMP XSOC -0.0479
-3.8445 AMP XVILLE -0.1711
-0.6138 AMP YPFAI -0.5143
-0.9822 AMP YPFOR 0.3897
-2.5684 AMP ZTRM -2.7532
-1.9862 AMS ADV -0.6806
-2.2069 AMS ADVNE -1.3460
-3.6584 AMS ADVPAS -1.1807
-4.0243 AMS AFP -0.1851
-3.8680 AMS AFS -0.4547
-4.4601 AMS AINDFP -0.0349
-4.0810 AMS AINDFS -0.8933
-4.1590 AMS AINDMP -0.0993
-4.6775 AMS AINDMS -0.2627
-4.0865 AMS AMP -0.1650
-1.4855 AMS AMS -0.3801
-2.9896 AMS CHIF -0.4691
-1.3226 AMS COCO -0.7103
-1.5819 AMS COSUB -0.6249
-3.2502 AMS DETFP -0.2195
-2.1573 AMS DETFS 0.0231
-3.1341 AMS DETMP 0.0798
-2.2737 AMS DETMS -0.2551
-1.8801 AMS MOTINC -0.4709
-3.6953 AMS NFP -0.0404
-2.8951 AMS NFS -0.1807
-3.1911 AMS NMP -0.1526
-0.6822 AMS NMS -0.4810
-3.6002 AMS PDEMFS -0.3995
-3.5253 AMS PDEMMS -0.3165
-4.8646 AMS PINDFS 0.0000
-3.6075 AMS PINDMS -0.3726
-4.2304 AMS PPER1S -0.1082
-4.3254 AMS PPER1P -0.1648
-4.5984 AMS PPER3FS -0.2337
-3.3168 AMS PPER3MS -0.4626
-4.5806 AMS PPER3MP 0.0000
-2.8580 AMS PPOBJMP -1.1082
-2.8384 AMS PPOBJMS -1.0191
-3.2840 AMS PREFMP -1.5842
-2.4039 AMS PREFMS -1.4552
-4.7481 AMS PRELFS 0.0000
-3.8782 AMS PRELMP -0.5102
-1.8909 AMS PRELMS -0.6679
-1.2552 AMS PREP -0.6774
-0.9315 AMS PREPADE -0.9430
-2.1951 AMS PREPAU 0.0164
-2.4137 AMS PREPAUX -0.1375
-1.7462 AMS PREPDES -0.0965
-1.6829 AMS PREPDU -0.1443
-4.5162 AMS V1S 0.0000
-1.8017 AMS V3S -1.1775
-2.7441 AMS V3P -0.3397
-2.9232 AMS VA3P -0.5919
-1.9971 AMS VA3S -1.3341
-4.6564 AMS VAINF -0.4291
-2.9851 AMS VE3P -0.4859
-1.9789 AMS VE3S -1.4208
-3.5044 AMS VEINF -0.5152
-2.9657 AMS VINF -0.1783
-3.7799 AMS VPPFP -0.2137
-3.4395 AMS VPPFS -0.4318
-3.5876 AMS VPPMP -0.1556
-2.0291 AMS VPPMS -1.0087
-2.5817 AMS VPPRE -0.2466
-2.9376 AMS XFAMIL -0.0140
-3.7799 AMS XPAYFS -0.2333
-3.3312 AMS XPAYMS -0.0737
-3.8232 AMS XPREF 0.1216
-2.2356 AMS XPREM -0.2836
-2.6826 AMS XSOC -0.0888
-3.2055 AMS XVILLE -0.0061
-0.6365 AMS YPFAI -0.3741
-1.0166 AMS YPFOR 0.0681
-2.5539 AMS ZTRM -3.1237
-2.5276 CHIF ADV -0.9795
-3.2351 CHIF ADVNE -0.8789
-2.6461 CHIF AFP -1.2748
-3.9638 CHIF AFS -0.2734
-4.7558 CHIF AINDFS -0.4098
-4.6400 CHIF AINDMP -0.5155
-2.2872 CHIF AMP -1.0962
-3.7144 CHIF AMS -0.4445
-0.2952 CHIF CHIF -0.1893
-1.9724 CHIF COCO -0.9223
-3.0214 CHIF COSUB -0.2419
-3.7233 CHIF DETFP 0.1163
-2.9339 CHIF DETFS 0.2087
-3.4330 CHIF DETMP -0.0454
-2.8471 CHIF DETMS -0.5021
-2.3861 CHIF MOTINC -0.4952
-1.4737 CHIF NFP -0.3074
-1.5372 CHIF NFS -1.7768
-1.0503 CHIF NMP -0.3988
-1.2648 CHIF NMS -0.8293
-4.9142 CHIF PDEMFS -0.1496
-5.2330 CHIF PDEMMP 0.0000
-4.6400 CHIF PDEMMS 0.0686
-4.4861 CHIF PINDMS -0.1543
-4.9899 CHIF PPER1S 0.0000
-4.8208 CHIF PPER1P 0.0000
-4.7807 CHIF PPER3FS -0.1460
-3.8468 CHIF PPER3MS -0.8762
-5.0111 CHIF PPER3MP 0.0000
-5.2330 CHIF PPOBJFS 0.0000
-3.9039 CHIF PPOBJMP -0.7867
-3.8650 CHIF PPOBJMS -1.0943
-4.4371 CHIF PREFMP -1.7572
-3.3894 CHIF PREFMS -0.4269
-4.3879 CHIF PRELFP -0.9664
-5.1982 CHIF PRELFS 0.0000
-3.9039 CHIF PRELMP -0.4507
-3.2173 CHIF PRELMS -0.4913
-2.0480 CHIF PREP -0.5929
-1.4918 CHIF PREPADE -1.3648
-2.6432 CHIF PREPAU -0.6801
-3.6364 CHIF PREPAUX -0.0926
-3.0366 CHIF PREPDES -0.3246
-3.0595 CHIF PREPDU -0.3382
-5.0111 CHIF V2S 0.0000
-2.6509 CHIF V3S -0.7402
-3.2152 CHIF V3P -0.2557
-3.1654 CHIF VA3P -0.6540
-3.0286 CHIF VA3S -0.9274
-3.2436 CHIF VE3P -0.4345
-3.0954 CHIF VE3S -0.7328
-4.8972 CHIF VEINF 0.0000
-4.4200 CHIF VINF -0.0182
-4.0025 CHIF VPPFP -0.2378
-3.9212 CHIF VPPFS -0.0699
-3.2719 CHIF VPPMP -0.2278
-3.6097 CHIF VPPMS -0.5884
-3.5903 CHIF VPPRE -0.2663
-4.4313 CHIF XFAMIL -0.0490
-4.0741 CHIF XPAYFS -0.1044
-4.5797 CHIF XPAYMS -0.1622
-3.2294 CHIF XPREF -0.0462
-3.8697 CHIF XPREM 0.0867
-2.6434 CHIF XSOC -0.6323
-3.0523 CHIF XVILLE -1.0931
-0.7767 CHIF YPFAI -0.8474
-1.5375 CHIF YPFOR 0.2554
-2.6402 CHIF ZTRM -3.3709
-1.1759 COCO ADV -0.0760
-2.1986 COCO ADVNE -0.4506
-2.3517 COCO ADVPAS -0.4043
-1.9210 COCO AFP -0.2212
-1.6823 COCO AFS -0.3164
-3.1466 COCO AINDFP -0.2188
-3.1008 COCO AINDFS -0.2317
-2.7538 COCO AINDMP -0.5765
-3.2578 COCO AINDMS -0.6079
-1.7883 COCO AMP -0.1949
-1.5882 COCO AMS -0.3177
-1.5371 COCO CHIF -0.3151
-2.6927 COCO COCO -0.4979
-1.5814 COCO COSUB -0.6278
-1.5891 COCO DETFP -0.5345
-1.0812 COCO DETFS -0.3455
-1.3666 COCO DETMP -0.2909
-1.1228 COCO DETMS -0.4185
-4.1002 COCO DINTFP 0.2496
-3.6335 COCO DINTFS -0.1400
-4.1391 COCO DINTMP -0.0633
-3.6335 COCO DINTMS -0.0132
-1.6722 COCO MOTINC 0.0045
-1.9657 COCO NFP -0.2762
-1.8138 COCO NFS -0.3351
-1.7410 COCO NMP -0.3503
-1.5980 COCO NMS -0.4387
-3.1058 COCO PDEMFP -0.1293
-2.4429 COCO PDEMFS -0.1787
-2.7709 COCO PDEMMP -0.2209
-1.9861 COCO PDEMMS -0.5431
-3.2844 COCO PINDFP -0.2784
-3.3454 COCO PINDFS -1.1602
-3.3169 COCO PINDMP -0.0365
-1.9645 COCO PINDMS -0.6144
-4.3890 COCO PINTFS -0.1787
-3.0922 COCO PINTMS -1.3535
-2.2910 COCO PPER1S -0.7686
-2.5031 COCO PPER1P -0.8509
-3.2394 COCO PPER2P -0.7636
-2.3957 COCO PPER3FS -1.0255
-3.0433 COCO PPER3FP -0.6005
-1.7425 COCO PPER3MS -1.6630
-2.4555 COCO PPER3MP -0.8429
-3.4904 COCO PPOBJFP -1.3902
-3.0743 COCO PPOBJFS -0.8399
-2.4171 COCO PPOBJMP -1.0248
-2.3650 COCO PPOBJMS -0.7685
-4.3018 COCO PREFFS -1.3023
-2.7062 COCO PREFMP -1.9935
-2.1531 COCO PREFMS -1.2219
-3.1205 COCO PRELFP -0.6047
-2.1939 COCO PRELFS -0.9495
-2.5549 COCO PRELMP -0.7113
-2.1380 COCO PRELMS -0.4205
-1.3928 COCO PREP -0.1862
-0.9243 COCO PREPADE -0.6307
-2.2428 COCO PREPAU 0.1559
-2.2734 COCO PREPAUX -0.1063
-1.6503 COCO PREPDES -1.5800
-1.8793 COCO PREPDU -0.1900
-3.2769 COCO V1P -0.3093
-3.8808 COCO V1S -0.0844
-3.4025 COCO V2P -0.1479
-4.6665 COCO V2S 0.0000
-1.6528 COCO V3S -1.0219
-2.0620 COCO V3P -0.7995
-4.7992 COCO VA1P -0.8592
-4.9039 COCO VA1S 0.0000
-2.8686 COCO VA3P -0.7801
-2.4513 COCO VA3S -1.0124
-3.9815 COCO VAINF -0.5266
-4.7412 COCO VE1P 0.0000
-2.9617 COCO VE3P -0.4869
-2.8895 COCO VE3S -0.8501
-3.1894 COCO VEINF -0.1569
-1.8032 COCO VINF -0.1100
-2.6013 COCO VPPFP -0.4161
-2.2801 COCO VPPFS -0.6385
-2.3372 COCO VPPMP -0.3129
-1.8101 COCO VPPMS -0.4741
-2.3921 COCO VPPRE -0.2093
-2.4593 COCO XFAMIL 0.0431
-4.7692 COCO XPAYFP -0.1569
-3.0013 COCO XPAYFS -0.5340
-4.6231 COCO XPAYMP 0.0000
-3.0357 COCO XPAYMS -0.1643
-2.5671 COCO XPREF -0.0851
-1.8603 COCO XPREM -0.2501
-2.3114 COCO XSOC -0.2430
-2.2863 COCO XVILLE -0.2843
-1.3894 COCO YPFAI -1.1879
-3.0571 COCO YPFOR 2.1419
-4.7692 COCO ZTRM -0.8750
-1.6336 COSUB ADV -0.7366
-2.6779 COSUB ADVNE -0.5284
-3.1124 COSUB ADVPAS -0.9084
-2.8688 COSUB AFP -0.3412
-2.4747 COSUB AFS -0.5060
-2.7971 COSUB AINDFP -0.6246
-2.6518 COSUB AINDFS -0.6210
-2.3235 COSUB AINDMP -0.9502
-2.6137 COSUB AINDMS -0.8047
-2.6700 COSUB AMP -0.3792
-2.0441 COSUB AMS -0.6527
-2.0360 COSUB CHIF -0.8546
-3.4134 COSUB COCO -0.4831
-2.7096 COSUB COSUB -0.4060
-1.4662 COSUB DETFP -0.5488
-0.9086 COSUB DETFS -0.3087
-1.1724 COSUB DETMP -0.2940
-0.8350 COSUB DETMS -0.7637
-1.9474 COSUB MOTINC -0.4570
-3.3018 COSUB NFP -0.1848
-2.2801 COSUB NFS -0.3417
-2.6717 COSUB NMP -0.5176
-1.7229 COSUB NMS -0.7250
-2.7785 COSUB PDEMFP -0.2407
-2.2501 COSUB PDEMFS 0.0808
-2.5254 COSUB PDEMMP -0.0834
-1.7776 COSUB PDEMMS -0.2250
-3.3573 COSUB PINDFP -0.4259
-3.1683 COSUB PINDFS -0.9583
-2.6303 COSUB PINDMP -0.0883
-1.3555 COSUB PINDMS -1.1559
-1.8097 COSUB PPER1S -1.0339
-1.8593 COSUB PPER1P -0.9233
-2.3603 COSUB PPER2P -1.1207
-1.5053 COSUB PPER3FS -1.3669
-2.1057 COSUB PPER3FP -1.2538
-0.8803 COSUB PPER3MS -2.0271
-1.5236 COSUB PPER3MP -1.8921
-3.7455 COSUB PPOBJFP -1.7195
-3.5830 COSUB PPOBJFS -0.5120
-2.7122 COSUB PPOBJMP -0.8036
-1.9719 COSUB PPOBJMS -1.2443
-3.5094 COSUB PREFFS -2.2600
-2.1902 COSUB PREFMS -1.3835
-4.1257 COSUB PRELMS 0.0000
-1.4623 COSUB PREP -0.7437
-1.5047 COSUB PREPADE -0.4252
-2.3358 COSUB PREPAU 0.2429
-2.7148 COSUB PREPAUX -0.0169
-2.8510 COSUB PREPDES -0.9391
-2.8170 COSUB PREPDU -0.5231
-3.5141 COSUB V1P -1.6390
-4.0887 COSUB V1S -0.4567
-2.8604 COSUB V2P -1.6663
-4.3165 COSUB V2S -0.2261
-1.7863 COSUB V3S -1.3156
-2.0634 COSUB V3P -0.9763
-3.2500 COSUB VA3P -0.5158
-3.1536 COSUB VA3S -0.9604
-2.6548 COSUB VE3P -0.6635
-2.4909 COSUB VE3S -1.2204
-3.1162 COSUB VEINF -0.1532
-1.9847 COSUB VINF -0.2558
-3.7070 COSUB VPPFP -0.1784
-3.1455 COSUB VPPFS -0.4713
-3.3226 COSUB VPPMP -0.2372
-2.6758 COSUB VPPMS -0.7497
-2.7598 COSUB VPPRE -0.5856
-2.5833 COSUB XFAMIL -0.3843
-3.7455 COSUB XPAYFS -0.3767
-3.1190 COSUB XPAYMS -0.7970
-2.7908 COSUB XPREF -0.3310
-2.0079 COSUB XPREM -0.2586
-2.8444 COSUB XSOC -0.2408
-2.4246 COSUB XVILLE -0.6437
-1.2934 COSUB YPFAI -1.2522
-2.9186 COSUB YPFOR 2.1697
-4.5748 COSUB ZTRM -0.9031
-1.9214 DETFP ADV -1.9865
-1.2262 DETFP AFP -1.1539
-4.0398 DETFP AFS -0.4301
-2.9287 DETFP AINDFP -1.0296
-3.9818 DETFP AINDMP -1.2242
-3.5346 DETFP AMP -1.4783
-3.2514 DETFP CHIF -0.6836
-4.5047 DETFP COCO 0.0000
-4.4699 DETFP COSUB 0.0000
-3.0773 DETFP DETMP -0.2063
-4.2221 DETFP MOTINC 0.0000
-0.0561 DETFP NFP -0.4443
-2.9872 DETFP NFS -0.1269
-3.7205 DETFP NMP -0.2149
-4.0398 DETFP V1P 0.0000
-3.5346 DETFP V2S -0.0846
-4.1367 DETFP VE3P 0.0000
-3.3310 DETFP VINF -0.6823
-3.3879 DETFP VPPFP -0.3930
-3.2454 DETFP VPPRE -0.6821
-2.5098 DETFP XPAYFP -0.0743
-4.3797 DETFP XPAYFS 0.0000
-1.3969 DETFP YPFAI -1.5746
-3.6154 DETFP YPFOR 3.0616
-2.1617 DETFS ADV -2.0892
-4.6639 DETFS ADVNE -0.7297
-1.1623 DETFS AFS -1.1240
-3.8060 DETFS AINDFS -1.4048
-3.7176 DETFS AMS -0.9939
-2.8172 DETFS CHIF -0.3798
-3.8891 DETFS COCO -0.7232
-5.0932 DETFS DETFP -0.7092
-4.3336 DETFS DETFS 0.4725
-4.9356 DETFS DETMP 0.0000
-1.6782 DETFS MOTINC -0.1760
-3.6234 DETFS NFP -0.3192
-0.0873 DETFS NFS -0.2230
-3.0071 DETFS NMS -0.3116
-4.8994 DETFS PDEMFS -0.4792
-4.8824 DETFS PRELMS 0.0000
-3.3219 DETFS PREP -0.3088
-3.3986 DETFS PREPADE -1.0864
-3.1028 DETFS PREPDES -0.8626
-4.6346 DETFS V2P -0.0856
-5.1512 DETFS V2S 0.0000
-2.8884 DETFS V3S -0.8092
-4.2520 DETFS V3P -0.3243
-4.8994 DETFS VA3S -0.5760
-5.1213 DETFS VE3S 0.0000
-3.0375 DETFS VINF -1.3043
-3.4461 DETFS VPPFS -0.3335
-5.0932 DETFS VPPMS 0.0000
-3.6412 DETFS VPPRE -0.6136
-3.2552 DETFS XFAMIL -0.0696
-1.3473 DETFS XPAYFS -0.6848
-4.3578 DETFS XPAYMS -0.3119
-3.4791 DETFS XPREF 0.1575
-4.1042 DETFS XPREM 0.0773
-1.7755 DETFS XSOC -0.4894
-3.2336 DETFS XVILLE -0.0903
-1.8522 DETFS YPFAI -1.7664
-3.9856 DETFS YPFOR 2.7183
-5.1213 DETFS ZTRM -0.8750
-1.7671 DETMP ADV -2.1538
-3.3526 DETMP AINDMP -1.0850
-3.8497 DETMP AINDMS -1.9273
-1.0755 DETMP AMP -0.7203
-3.5096 DETMP AMS -0.9269
-1.1384 DETMP CHIF -0.9871
-3.3034 DETMP DETFP -0.1805
-1.6800 DETMP MOTINC -0.5312
-0.1075 DETMP NMP -0.3615
-2.6001 DETMP NMS -0.2325
-3.2580 DETMP PREP -0.5804
-4.1070 DETMP PREPADE -0.1471
-2.7303 DETMP V3S -0.3908
-3.2062 DETMP V3P -0.5308
-3.8870 DETMP VA3P -0.6320
-4.1771 DETMP VA3S -0.6977
-2.5879 DETMP VPPMP -0.4089
-4.3478 DETMP VPPMS -0.3000
-3.2086 DETMP XFAMIL -0.2456
-1.9613 DETMP XPAYMP -0.3128
-4.0715 DETMP XPAYMS 0.0387
-4.3478 DETMP XPREF 0.0000
-3.7072 DETMP XPREM 0.0638
-2.6380 DETMP XSOC -0.2666
-3.4118 DETMP XVILLE -0.0725
-4.1457 DETMP YPFAI -0.4825
-1.8775 DETMS ADV -1.2325
-3.8678 DETMS ADVPAS -1.2050
-4.3662 DETMS AFS -0.4353
-4.9073 DETMS AINDMP -0.4732
-4.6168 DETMS AMP -0.0293
-0.9926 DETMS AMS -0.6856
-1.6737 DETMS CHIF -1.6108
-3.8047 DETMS COCO -0.9977
-3.2432 DETMS COSUB -0.5258
-4.9508 DETMS DETMP -0.4328
-4.9508 DETMS DETMS 0.0000
-1.7496 DETMS MOTINC -0.5820
-4.7382 DETMS NFP -0.1143
-3.3692 DETMS NFS -0.1958
-3.0019 DETMS NMP -0.6758
-0.1092 DETMS NMS -0.2663
-3.1882 DETMS PINDMS -1.0060
-4.2802 DETMS PPOBJMS -1.2407
-3.9966 DETMS PRELMS -0.4946
-2.7048 DETMS PREP -0.8842
-3.0423 DETMS PREPADE -1.3350
-5.1156 DETMS PREPAU 0.0000
-2.7124 DETMS PREPDES -1.7122
-3.5991 DETMS V1S -0.8071
-4.8871 DETMS V2P 0.0000
-5.0834 DETMS V2S 0.0000
-2.2119 DETMS V3S -1.4078
-3.0646 DETMS V3P -0.6886
-4.7244 DETMS VA2S -1.4372
-4.3845 DETMS VA3S -1.1992
-4.6733 DETMS VE3P -0.4016
-3.9816 DETMS VE3S -0.5091
-3.8196 DETMS VEINF -1.4092
-2.0768 DETMS VINF -0.8748
-4.3265 DETMS VPPMP 0.1542
-2.5023 DETMS VPPMS -1.1256
-3.1551 DETMS VPPRE -0.8097
-2.9552 DETMS XFAMIL -0.3033
-4.3211 DETMS XPAYFS -0.2796
-1.9269 DETMS XPAYMS -0.2757
-4.4372 DETMS XPREF -0.1431
-3.0989 DETMS XPREM 0.2069
-2.0157 DETMS XSOC -0.4876
-3.1070 DETMS XVILLE -0.5592
-1.7960 DETMS YPFAI -1.8511
-3.9991 DETMS YPFOR 2.7996
-4.6168 DETMS ZTRM -1.3117
-1.9449 DINTFP AFP -0.9887
-0.2013 DINTFP NFP -0.1529
-1.8480 DINTFP PPOBJFP -1.1756
-1.4008 DINTFP PRELFP -1.5422
-1.6623 DINTFP PRELMS -0.4573
-1.7019 DINTFP V3P -1.0119
-1.8480 DINTFP VA3P -0.7557
-0.6158 DINTFP VE3P -0.8957
-2.0598 DINTFS ADVNE -0.6161
-1.2591 DINTFS AFS -0.7312
-2.3785 DINTFS MOTINC 0.0000
-0.1574 DINTFS NFS -0.4626
-1.4324 DINTFS PRELMS -0.6102
-2.0106 DINTFS V3S -0.8375
-2.0598 DINTFS VA3S -0.7521
-0.8074 DINTFS VE3S -1.1699
-2.1153 DINTFS XPAYFS 0.0000
-2.1355 DINTFS YPFAI -0.4089
-1.8397 DINTMP AMP -1.0523
-0.2400 DINTMP NMP -0.0532
-1.9067 DINTMP PPOBJMP -1.0735
-1.8098 DINTMP PRELFP -0.5509
-1.2535 DINTMP PRELFS -1.7297
-1.8397 DINTMP V3P -0.8358
-1.9067 DINTMP VA3P -0.6588
-0.5529 DINTMP VE3P -0.7599
-2.1665 DINTMS ADV -0.3557
-1.3496 DINTMS AMS -0.7519
-2.3340 DINTMS COSUB -0.3909
-2.3092 DINTMS MOTINC 0.0000
-0.1335 DINTMS NMS -0.6330
-1.4183 DINTMS PRELFS -1.2902
-1.8742 DINTMS V3S -0.9044
-2.2027 DINTMS VA3S -1.0169
-0.8877 DINTMS VE3S -1.0019
-2.1173 DINTMS YPFAI -0.3802
-2.2096 MOTINC ADV -0.4028
-1.9863 MOTINC ADVNE -1.5431
-3.7813 MOTINC ADVPAS -0.1587
-2.6628 MOTINC AFP 0.0008
-2.2220 MOTINC AFS -0.0972
-4.3804 MOTINC AINDFP 0.1117
-4.2410 MOTINC AINDFS 0.2171
-4.0853 MOTINC AINDMP -0.0549
-4.3254 MOTINC AINDMS 0.1932
-2.4844 MOTINC AMP -0.2498
-2.0006 MOTINC AMS -0.0669
-1.9224 MOTINC CHIF -0.0145
-1.3483 MOTINC COCO -0.6710
-2.0049 MOTINC COSUB -0.5204
-3.0937 MOTINC DETFP 0.0033
-2.2795 MOTINC DETFS 0.4106
-2.8738 MOTINC DETMP -0.0672
-2.3045 MOTINC DETMS -0.3651
-1.0746 MOTINC MOTINC -0.2366
-2.7702 MOTINC NFP -0.0762
-2.0200 MOTINC NFS -0.3028
-2.5032 MOTINC NMP -0.0155
-1.7976 MOTINC NMS -0.1710
-4.0510 MOTINC PDEMFS -0.0951
-4.4572 MOTINC PDEMMP 0.0810
-3.7994 MOTINC PDEMMS -0.0019
-4.6062 MOTINC PINDFS -0.2872
-3.5046 MOTINC PINDMS -0.0867
-4.2243 MOTINC PPER1S 0.0706
-4.0510 MOTINC PPER1P -0.2616
-4.1562 MOTINC PPER2P -0.1932
-4.1161 MOTINC PPER3FS 0.0921
-4.6264 MOTINC PPER3FP 0.0000
-3.2656 MOTINC PPER3MS -0.0223
-4.2004 MOTINC PPER3MP -0.0224
-4.8347 MOTINC PPOBJFP -0.6304
-3.2028 MOTINC PPOBJFS -1.0959
-2.6109 MOTINC PPOBJMP -1.1071
-2.3711 MOTINC PPOBJMS -1.1373
-2.8411 MOTINC PREFMP -1.9971
-2.1322 MOTINC PREFMS -1.1542
-3.1174 MOTINC PRELFP -1.0762
-4.1493 MOTINC PRELFS -0.2015
-3.2470 MOTINC PRELMP -1.2030
-2.1705 MOTINC PRELMS -0.6668
-1.5243 MOTINC PREP -0.3739
-1.4973 MOTINC PREPADE -0.4358
-2.5375 MOTINC PREPAU -0.1461
-2.9366 MOTINC PREPAUX 0.1545
-2.5489 MOTINC PREPDES -0.3222
-2.3768 MOTINC PREPDU -0.1318
-4.5507 MOTINC V1P 0.0000
-3.9801 MOTINC V1S -0.2943
-4.5507 MOTINC V2P 0.0000
-3.9574 MOTINC V2S -0.1407
-1.4106 MOTINC V3S -0.5702
-2.2398 MOTINC V3P -0.5888
-4.8347 MOTINC VA2S -0.7893
-2.4013 MOTINC VA3P -0.7785
-1.6058 MOTINC VA3S -1.5103
-4.2674 MOTINC VE2S -0.4902
-2.5500 MOTINC VE3P -0.5772
-1.8000 MOTINC VE3S -1.2761
-3.6982 MOTINC VEINF -0.0880
-3.0301 MOTINC VINF -0.0183
-3.1989 MOTINC VPPFP -0.2067
-2.7849 MOTINC VPPFS -0.2826
-2.7648 MOTINC VPPMP -0.2199
-2.5438 MOTINC VPPMS -0.5126
-2.8251 MOTINC VPPRE -0.1398
-2.0093 MOTINC XFAMIL -0.1666
-4.1225 MOTINC XPAYFP -0.0985
-2.9539 MOTINC XPAYFS -0.2575
-3.1465 MOTINC XPAYMS -0.2157
-3.1800 MOTINC XPREF -0.0375
-2.3542 MOTINC XPREM -0.0217
-2.3053 MOTINC XSOC -0.2641
-2.5380 MOTINC XVILLE -0.2397
-0.3627 MOTINC YPFAI -0.7782
-0.9915 MOTINC YPFOR 0.9181
-2.1459 MOTINC ZTRM -3.5017
-1.6030 NFP ADV -0.9112
-2.1924 NFP ADVNE -1.5436
-4.1547 NFP ADVPAS -0.6544
-0.6915 NFP AFP -0.0891
-2.7250 NFP AFS -0.4279
-3.1431 NFP AINDFP -0.1755
-4.0225 NFP AINDFS -0.1998
-3.8842 NFP AINDMP -0.2486
-4.2535 NFP AINDMS -0.6338
-2.9900 NFP AMP -0.3175
-2.6505 NFP AMS -0.2557
-1.9270 NFP CHIF -0.1337
-1.3602 NFP COCO -0.7265
-1.8678 NFP COSUB -0.4803
-2.4687 NFP DETFP -0.3646
-2.3301 NFP DETFS 0.3200
-3.0133 NFP DETMP -0.2767
-2.5389 NFP DETMS -0.7370
-2.1116 NFP MOTINC -0.2367
-2.0234 NFP NFP -0.5367
-2.9757 NFP NFS -0.1430
-2.8293 NFP NMP -0.2466
-2.6905 NFP NMS -0.2636
-4.4784 NFP PDEMFP -0.1315
-3.8574 NFP PDEMFS -0.1095
-4.8464 NFP PDEMMP 0.0000
-4.0505 NFP PDEMMS 0.0182
-3.9911 NFP PINDFS -0.3707
-3.6096 NFP PINDMS -0.2791
-4.4484 NFP PPER1S -0.0056
-4.1697 NFP PPER1P -0.0948
-4.4070 NFP PPER3FS -0.1802
-3.8725 NFP PPER3FP -0.3126
-3.5972 NFP PPER3MS -0.4817
-4.2921 NFP PPER3MP -0.0530
-4.1547 NFP PPOBJFP -0.5225
-3.7733 NFP PPOBJFS -1.2104
-2.7651 NFP PPOBJMP -1.2050
-2.9048 NFP PPOBJMS -1.2500
-2.4047 NFP PREFMP -2.3936
-2.5835 NFP PREFMS -0.9651
-1.8147 NFP PRELFP -0.5877
-2.9885 NFP PRELFS -0.6797
-2.5051 NFP PRELMP -1.8554
-3.1797 NFP PRELMS -0.8220
-1.1667 NFP PREP -0.6800
-0.7483 NFP PREPADE -0.9193
-2.3241 NFP PREPAU -0.5254
-2.4724 NFP PREPAUX -0.1050
-1.8299 NFP PREPDES 0.0398
-1.5956 NFP PREPDU -0.2177
-4.8842 NFP V1P 0.0000
-4.4942 NFP V2P -1.0242
-4.1547 NFP V2S -0.0268
-2.3385 NFP V3S -0.5654
-1.7771 NFP V3P -1.0066
-1.9731 NFP VA3P -1.0686
-2.6237 NFP VA3S -0.9500
-1.9142 NFP VE3P -1.4064
-2.4897 NFP VE3S -0.7658
-3.6224 NFP VEINF -0.3062
-3.3815 NFP VINF -0.3395
-1.4646 NFP VPPFP -0.2086
-3.1467 NFP VPPFS -0.3290
-2.9966 NFP VPPMP -0.1912
-2.8255 NFP VPPMS -0.6215
-2.1883 NFP VPPRE -0.4266
-3.2941 NFP XFAMIL -0.2947
-4.0335 NFP XPAYFP 0.0141
-4.0505 NFP XPAYFS -0.4839
-4.2443 NFP XPAYMS -0.2080
-3.8842 NFP XPREF 0.1344
-3.3778 NFP XPREM -0.1227
-3.0700 NFP XSOC 0.0783
-3.6096 NFP XVILLE -0.1179
-0.7943 NFP YPFAI -0.0475
-1.1532 NFP YPFOR 0.2577
-2.6130 NFP ZTRM -3.0115
-1.7354 NFS ADV -1.0385
-2.0952 NFS ADVNE -2.0244
-4.1849 NFS ADVPAS -0.3044
-2.9132 NFS AFP -0.0519
-0.8044 NFS AFS 0.0278
-4.1669 NFS AINDFP -0.1592
-3.5668 NFS AINDFS -0.0119
-3.6949 NFS AINDMP -0.6004
-4.3222 NFS AINDMS -1.0445
-3.1488 NFS AMP -0.1561
-2.7373 NFS AMS -0.0686
-1.5745 NFS CHIF -0.7483
-1.4453 NFS COCO -0.7905
-1.8838 NFS COSUB -0.6724
-3.0429 NFS DETFP -0.2300
-2.0954 NFS DETFS -0.0733
-2.8725 NFS DETMP -0.1764
-2.3649 NFS DETMS -0.4758
-5.1040 NFS DINTFS -0.3816
-1.9181 NFS MOTINC -0.2416
-3.6211 NFS NFP -0.2162
-2.1077 NFS NFS -0.4203
-3.4182 NFS NMP -0.3332
-2.3585 NFS NMS -0.4110
-5.0626 NFS PDEMFP 0.0000
-3.7130 NFS PDEMFS -0.4321
-4.4319 NFS PDEMMP -0.2706
-3.7986 NFS PDEMMS -0.2505
-4.8865 NFS PINDFP 0.0000
-4.3046 NFS PINDFS -0.7163
-5.1497 NFS PINDMP -0.4533
-3.4907 NFS PINDMS -0.4241
-5.2911 NFS PINTMS -1.1085
-4.1521 NFS PPER1S 0.4573
-4.0869 NFS PPER1P -0.3713
-5.2289 NFS PPER2S -0.4596
-4.9426 NFS PPER2P -0.1240
-3.8150 NFS PPER3FS -0.1630
-4.8139 NFS PPER3FP -0.1359
-3.4076 NFS PPER3MS -0.8284
-4.2715 NFS PPER3MP -0.2737
-3.2050 NFS PPOBJFS -1.2350
-2.6664 NFS PPOBJMP -1.2064
-3.0427 NFS PPOBJMS -1.0859
-2.5413 NFS PREFFS -3.1898
-3.1461 NFS PREFMP -2.0439
-2.6985 NFS PREFMS -1.7252
-3.9752 NFS PRELFP -0.4241
-1.8949 NFS PRELFS -0.4093
-3.0592 NFS PRELMP -0.9715
-2.9317 NFS PRELMS -1.1780
-1.2182 NFS PREP -0.6078
-0.7034 NFS PREPADE -1.1351
-2.1491 NFS PREPAU -0.1824
-2.3531 NFS PREPAUX -0.2201
-1.3432 NFS PREPDES -0.2184
-1.4027 NFS PREPDU -0.0841
-5.1040 NFS V1P -0.3230
-4.8865 NFS V1S -0.3338
-4.6126 NFS V2P -0.3245
-5.0626 NFS V2S 0.0000
-1.7309 NFS V3S -1.6704
-2.5579 NFS V3P -0.8925
-2.7686 NFS VA3P -0.9649
-2.0615 NFS VA3S -1.8440
-5.0433 NFS VAINF -0.7696
-5.3258 NFS VE2S 0.0000
-2.7184 NFS VE3P -0.8480
-1.8415 NFS VE3S -1.7687
-3.6261 NFS VEINF -0.2432
-3.2907 NFS VINF -0.1541
-3.2298 NFS VPPFP -0.3869
-1.8085 NFS VPPFS -0.1273
-3.0803 NFS VPPMP -0.1400
-2.7556 NFS VPPMS -0.7379
-2.5439 NFS VPPRE -0.4032
-2.6143 NFS XFAMIL -0.0842
-5.1745 NFS XPAYFP -0.2112
-3.1551 NFS XPAYFS -0.1505
-3.7095 NFS XPAYMS -0.2032
-2.6140 NFS XPREF -0.1266
-2.9226 NFS XPREM 0.0384
-2.8706 NFS XSOC -0.0998
-3.2368 NFS XVILLE -0.1782
-0.7880 NFS YPFAI -0.2052
-1.1435 NFS YPFOR -0.2314
-2.6227 NFS ZTRM -3.4813
-1.6384 NMP ADV -0.7709
-2.0387 NMP ADVNE -1.7085
-4.2056 NMP ADVPAS -0.4910
-3.5494 NMP AFP 0.0411
-3.5518 NMP AFS -0.1215
-4.3582 NMP AINDFP -0.1631
-3.8760 NMP AINDFS -0.6317
-3.2327 NMP AINDMP -0.3536
-4.0807 NMP AINDMS -0.9951
-0.8523 NMP AMP -0.3219
-2.7028 NMP AMS -0.3827
-2.2749 NMP CHIF -0.2082
-1.3032 NMP COCO -0.8078
-1.9170 NMP COSUB -0.3889
-3.3093 NMP DETFP -0.0271
-2.2345 NMP DETFS 0.0381
-2.4083 NMP DETMP -0.4787
-2.4659 NMP DETMS -0.4003
-5.0002 NMP DINTMP 0.0000
-2.1697 NMP MOTINC -0.2713
-3.1063 NMP NFP -0.0463
-3.0235 NMP NFS -0.1928
-2.2130 NMP NMP -0.1049
-2.7235 NMP NMS -0.4384
-3.9870 NMP PDEMFS -0.4495
-4.3079 NMP PDEMMP -0.0543
-3.8914 NMP PDEMMS -0.0444
-4.8131 NMP PINDFP 0.0000
-4.2003 NMP PINDFS -0.5710
-3.3761 NMP PINDMS -0.3388
-4.3148 NMP PPER1S -0.0055
-4.3012 NMP PPER1P -0.2367
-4.8836 NMP PPER2P 0.0000
-4.4513 NMP PPER3FS -0.0726
-3.4919 NMP PPER3MS -1.2066
-4.1599 NMP PPER3MP -0.1383
-5.0002 NMP PPOBJFP 0.0000
-3.9294 NMP PPOBJFS -1.2712
-2.5674 NMP PPOBJMP -0.6218
-2.6617 NMP PPOBJMS -1.8107
-2.1173 NMP PREFMP -1.4062
-2.8644 NMP PREFMS -2.8165
-4.7524 NMP PRELFP 0.0000
-4.2110 NMP PRELFS -0.1436
-1.6938 NMP PRELMP -0.5015
-2.9536 NMP PRELMS -0.5725
-1.2020 NMP PREP -0.7364
-0.7548 NMP PREPADE -0.9405
-2.2859 NMP PREPAU -0.2495
-2.5481 NMP PREPAUX -0.0387
-1.7592 NMP PREPDES -0.2081
-1.5516 NMP PREPDU -0.0324
-4.6991 NMP V1P -0.3120
-4.9380 NMP V1S 0.0000
-4.6089 NMP V2P -0.3198
-2.3061 NMP V3S -0.7309
-1.5909 NMP V3P -1.2751
-1.8167 NMP VA3P -1.3485
-2.5624 NMP VA3S -1.1146
-1.8692 NMP VE3P -1.2352
-2.4411 NMP VE3S -1.1059
-3.5750 NMP VEINF -0.2884
-3.1731 NMP VINF -0.0844
-3.3005 NMP VPPFP -0.2846
-3.1128 NMP VPPFS -0.5487
-1.4901 NMP VPPMP -0.0733
-3.0606 NMP VPPMS -0.6137
-2.2513 NMP VPPRE -0.5161
-2.8288 NMP XFAMIL -0.6090
-4.3737 NMP XPAYFP 0.1224
-4.3148 NMP XPAYFS -0.1250
-4.3817 NMP XPAYMS -0.3841
-3.8760 NMP XPREF -0.2135
-2.5358 NMP XPREM -0.4238
-2.9154 NMP XSOC -0.3044
-4.0422 NMP XVILLE -0.2604
-0.7178 NMP YPFAI -0.3709
-1.0414 NMP YPFOR -0.0426
-2.6188 NMP ZTRM -3.1942
-1.8239 NMS ADV -0.8271
-2.1513 NMS ADVNE -1.9700
-4.3533 NMS ADVPAS -0.8392
-3.5921 NMS AFP -0.0050
-3.2325 NMS AFS 0.0253
-4.2072 NMS AINDFP -0.3603
-3.9731 NMS AINDFS 0.3974
-3.8583 NMS AINDMP -0.2806
-4.0475 NMS AINDMS 0.1882
-2.9544 NMS AMP -0.0996
-0.8839 NMS AMS -0.3918
-1.5033 NMS CHIF -0.5267
-1.5438 NMS COCO -0.5539
-1.9579 NMS COSUB -0.5922
-3.1157 NMS DETFP 0.1076
-2.1293 NMS DETFS -0.0387
-2.9377 NMS DETMP -0.2699
-2.2131 NMS DETMS -0.4729
-5.3697 NMS DINTFS 0.0000
-5.4422 NMS DINTMP 0.0000
-5.2049 NMS DINTMS -0.3588
-1.5746 NMS MOTINC -0.1932
-3.4591 NMS NFP -0.3356
-2.6606 NMS NFS -0.3272
-3.4052 NMS NMP -0.3059
-1.9555 NMS NMS -0.3763
-4.9651 NMS PDEMFP 0.0000
-4.1635 NMS PDEMFS -0.4158
-4.5542 NMS PDEMMP -0.1072
-3.7293 NMS PDEMMS -0.0489
-5.4044 NMS PINDFP 0.0000
-4.6843 NMS PINDFS -0.4534
-5.1614 NMS PINDMP 0.0000
-3.3920 NMS PINDMS -0.7100
-4.1276 NMS PPER1S 0.0853
-3.9744 NMS PPER1P -0.1603
-5.0523 NMS PPER2S -0.3541
-4.9923 NMS PPER2P -0.0438
-2.9370 NMS PPER3FS -0.0236
-4.8209 NMS PPER3FP -0.0315
-2.2258 NMS PPER3MS 0.0851
-4.1614 NMS PPER3MP -0.5416
-3.5161 NMS PPOBJFS -1.0526
-2.7747 NMS PPOBJMP -1.0640
-2.7041 NMS PPOBJMS -0.9415
-3.2398 NMS PREFMP -2.1334
-2.3520 NMS PREFMS -1.3757
-4.2822 NMS PRELFP -0.2021
-3.8848 NMS PRELFS -0.0931
-3.1152 NMS PRELMP -0.1138
-1.8874 NMS PRELMS -0.6719
-1.3143 NMS PREP -0.4965
-0.7046 NMS PREPADE -1.2873
-2.2168 NMS PREPAU -0.0878
-2.5307 NMS PREPAUX -0.0495
-1.4996 NMS PREPDES -0.1105
-1.4241 NMS PREPDU -0.1308
-4.8604 NMS V1P -0.3207
-3.8402 NMS V1S -0.6632
-4.5246 NMS V2P -0.2847
-4.9521 NMS V2S -0.0649
-1.7380 NMS V3S -1.6841
-2.6385 NMS V3P -0.7251
-2.8393 NMS VA3P -0.7450
-2.0470 NMS VA3S -1.8275
-4.7934 NMS VAINF -0.6210
-2.8325 NMS VE3P -0.8107
-1.9021 NMS VE3S -1.6132
-3.5661 NMS VEINF -0.2274
-3.1885 NMS VINF -0.0786
-3.1674 NMS VPPFP -0.3389
-2.8045 NMS VPPFS -0.2966
-2.8626 NMS VPPMP -0.1995
-1.8113 NMS VPPMS -1.1185
-2.5504 NMS VPPRE -0.3881
-1.7986 NMS XFAMIL -0.4016
-3.2803 NMS XPAYFS -0.1154
-5.4422 NMS XPAYMP 0.0000
-3.6595 NMS XPAYMS -0.3070
-3.1103 NMS XPREF -0.3196
-1.6502 NMS XPREM -0.4690
-2.6449 NMS XSOC -0.4094
-3.1806 NMS XVILLE -0.2554
-0.7588 NMS YPFAI -0.2842
-1.1237 NMS YPFOR 0.2722
-2.6380 NMS ZTRM -3.5446
-1.7570 PDEMFP ADV -0.3551
-1.7018 PDEMFP ADVNE -0.7012
-2.0730 PDEMFP AFP -0.1286
-2.1477 PDEMFP COCO -0.2826
-1.3157 PDEMFP COSUB -0.5952
-2.7150 PDEMFP DETFS -0.0732
-2.7497 PDEMFP PPOBJMS 0.0000
-1.9901 PDEMFP PREFMP 0.1747
-0.8127 PDEMFP PRELFP -0.4256
-2.6528 PDEMFP PRELFS -1.1626
-1.8944 PDEMFP PRELMP -1.5357
-2.5502 PDEMFP PRELMS -0.4061
-1.9151 PDEMFP PREP -0.2378
-0.5610 PDEMFP PREPADE -0.2641
-0.9939 PDEMFP PREPDES -0.2016
-1.0965 PDEMFP PREPDU -0.3594
-2.7150 PDEMFP V3S 0.0000
-1.3052 PDEMFP V3P -0.2046
-1.6303 PDEMFP VA3P -0.1838
-1.5571 PDEMFP VE3P -0.4831
-1.2204 PDEMFP VPPFP -0.7571
-1.7083 PDEMFP VPPRE -0.1713
-1.3265 PDEMFP YPFAI -0.3089
-2.0581 PDEMFP YPFOR 3.2592
-2.3060 PDEMFS ADV -0.3312
-2.0472 PDEMFS ADVNE -1.4121
-3.0119 PDEMFS AFS -0.1256
-3.0674 PDEMFS COCO 0.0000
-0.6149 PDEMFS COSUB -1.0086
-3.0207 PDEMFS DETFS -0.2516
-3.2057 PDEMFS DETMS 0.2940
-3.4556 PDEMFS MOTINC 0.0000
-3.6317 PDEMFS PPOBJFP 0.0000
-3.0296 PDEMFS PPOBJMS -1.1845
-2.4728 PDEMFS PREFMS -0.8348
-0.4213 PDEMFS PRELFS -1.2943
-2.7065 PDEMFS PRELMS -1.6526
-2.0101 PDEMFS PREP -0.2426
-0.8320 PDEMFS PREPADE -0.4625
-3.1794 PDEMFS PREPAU 0.0666
-3.4321 PDEMFS PREPAUX 0.0000
-1.3394 PDEMFS PREPDES 0.0951
-1.3740 PDEMFS PREPDU 0.0298
-1.5638 PDEMFS V3S -0.5725
-2.0625 PDEMFS VA3S -0.4342
-2.0269 PDEMFS VE3S -0.6833
-3.2795 PDEMFS VEINF 0.0000
-2.0180 PDEMFS VPPFS -0.4123
-2.1380 PDEMFS VPPRE -0.5767
-1.4503 PDEMFS YPFAI -0.5464
-2.0784 PDEMFS YPFOR 2.3976
-1.8898 PDEMMP ADV -0.4676
-1.9613 PDEMMP ADVNE -1.0795
-2.3085 PDEMMP AFP -0.8967
-2.5439 PDEMMP AMP -0.1351
-2.2242 PDEMMP COCO -0.5029
-1.3304 PDEMMP COSUB -0.7763
-3.0956 PDEMMP DETFS -0.1634
-2.8684 PDEMMP DETMS -0.3896
-3.1858 PDEMMP MOTINC 0.0000
-2.9987 PDEMMP PPOBJFP -0.3272
-3.0693 PDEMMP PPOBJMS 0.0000
-2.2584 PDEMMP PREFMP -0.0279
-0.2855 PDEMMP PRELMP -0.6595
-3.1237 PDEMMP PRELMS -1.1485
-1.9362 PDEMMP PREP -0.4081
-0.8374 PDEMMP PREPADE -0.5062
-1.2865 PDEMMP PREPDES -0.1010
-1.3776 PDEMMP PREPDU -0.5492
-1.5274 PDEMMP V3P -0.2772
-1.8620 PDEMMP VA3P -0.2535
-1.8620 PDEMMP VE3P -0.4355
-3.2584 PDEMMP VEINF 0.0000
-1.6653 PDEMMP VPPMP -0.7773
-2.1694 PDEMMP VPPRE -0.0931
-1.4105 PDEMMP YPFAI -0.3732
-2.1536 PDEMMP YPFOR 2.8840
-2.7249 PDEMMS ADV -0.4260
-1.0657 PDEMMS ADVNE -2.0898
-3.4098 PDEMMS AMS -0.1123
-3.2082 PDEMMS COCO -0.0727
-1.6587 PDEMMS COSUB -0.9792
-3.2404 PDEMMS DETFS 0.1309
-3.4735 PDEMMS DETMS -0.1486
-3.1290 PDEMMS MOTINC -0.1490
-3.8492 PDEMMS PDEMMS -0.4634
-2.8630 PDEMMS PPOBJMP -1.3833
-2.3415 PDEMMS PPOBJMS -1.1271
-2.3830 PDEMMS PREFMS -1.1596
-1.3761 PDEMMS PRELMS -0.8459
-2.4480 PDEMMS PREP -0.3052
-1.1595 PDEMMS PREPADE -0.4623
-3.7980 PDEMMS PREPAU -0.3561
-1.6878 PDEMMS PREPDES 0.2335
-1.7695 PDEMMS PREPDU 0.1450
-1.6461 PDEMMS V3S -0.5324
-2.1634 PDEMMS VA3S -0.6318
-1.4007 PDEMMS VE3P -1.5606
-0.1961 PDEMMS VE3S -2.0917
-3.8492 PDEMMS VEINF 0.0000
-2.3561 PDEMMS VPPMS -0.7171
-3.1088 PDEMMS VPPRE -0.0145
-1.9930 PDEMMS YPFAI -0.5505
-2.5322 PDEMMS YPFOR 2.5089
-1.7694 PINDFP ADV 0.0000
-1.4886 PINDFP AFP -0.0693
-0.9534 PINDFP AMP -0.1775
-1.9783 PINDFP COSUB 0.0000
-2.0184 PINDFP DETMS 0.1617
-1.0370 PINDFP NFP -0.1392
-1.0312 PINDFP NMP -0.1674
-0.8169 PINDFP NMS -0.6082
-2.2545 PINDFP PREFMP -0.7540
-1.5959 PINDFP PREP -0.0208
-0.8743 PINDFP PREPADE -1.0990
-1.1773 PINDFP PREPDES -1.4039
-1.3892 PINDFP V3P -0.2514
-1.4567 PINDFP VA3P -0.0048
-1.7173 PINDFP VPPFP -0.1186
-1.3029 PINDFP YPFAI -0.0353
-1.0534 PINDFP YPFOR 2.5737
-3.1540 PINDFS ADV 0.0000
-2.1828 PINDFS ADVNE -0.7363
-2.3863 PINDFS AFS -0.2945
-3.2587 PINDFS CHIF 0.0000
-1.8215 PINDFS COCO -1.1626
-2.8529 PINDFS COSUB -0.1971
-2.6666 PINDFS DETFP 0.3970
-2.1240 PINDFS DETFS -0.6552
-3.0448 PINDFS DETMS -0.3012
-1.1478 PINDFS NFS -0.1624
-2.9384 PINDFS PINDFS 0.0000
-3.2587 PINDFS PPER2P 0.0000
-1.7013 PINDFS PREP -0.2737
-1.0898 PINDFS PREPADE -1.0877
-3.2209 PINDFS PREPAU 0.0000
-0.6830 PINDFS PREPDES -1.1851
-0.2684 PINDFS V3S -1.1314
-1.9820 PINDFS VA3S -0.8400
-2.6373 PINDFS VE3S -0.6568
-3.1540 PINDFS VPPFS 0.0000
-2.4550 PINDFS VPPRE -0.0904
-1.7661 PINDFS YPFAI -0.3839
-2.4676 PINDFS YPFOR 3.1976
-2.5655 PINDMP ADV 0.0000
-1.8877 PINDMP ADVNE -0.5015
-1.9239 PINDMP COCO -0.0482
-2.7737 PINDMP COSUB 0.0000
-2.4563 PINDMP DETFS 0.1534
-2.6836 PINDMP DETMP -0.0681
-2.2644 PINDMP MOTINC 0.0000
-0.9984 PINDMP NFP -0.2724
-0.9792 PINDMP NMP -0.2365
-2.1553 PINDMP PPOBJMS -0.2173
-2.2749 PINDMP PREFMP -0.6378
-1.6702 PINDMP PREFMS -1.1269
-2.2644 PINDMP PRELMP -0.0058
-1.8049 PINDMP PREP 0.0232
-0.6929 PINDMP PREPADE -1.1470
-2.8463 PINDMP PREPAU 0.0000
-1.2728 PINDMP PREPDES -0.2329
-0.9728 PINDMP V3P -0.4467
-1.4744 PINDMP VA3P -0.4953
-1.5355 PINDMP VE3P -0.4566
-1.7293 PINDMP VPPMP 0.0241
-1.8920 PINDMP VPPRE -0.1025
-0.8173 PINDMP YPFAI -0.2671
-1.0974 PINDMP YPFOR 2.2398
-1.6438 PINDMS ADV -1.0309
-0.8619 PINDMS ADVNE -2.1263
-2.9500 PINDMS ADVPAS -0.4256
-3.3626 PINDMS AFS -0.4352
-2.0363 PINDMS AMS -0.7259
-3.0345 PINDMS CHIF 0.0869
-1.9770 PINDMS COCO -0.8853
-1.7851 PINDMS COSUB -0.6035
-3.4595 PINDMS DETFP -0.3545
-2.1775 PINDMS DETFS -0.2802
-2.1042 PINDMS DETMP -0.5456
-1.4804 PINDMS DETMS -0.9099
-2.7605 PINDMS MOTINC -0.1128
-4.0616 PINDMS NFS 0.0000
-3.7453 PINDMS NMP -0.1396
-1.4448 PINDMS NMS -0.7337
-3.9289 PINDMS PDEMMP -0.9617
-1.8976 PINDMS PDEMMS -1.0224
-3.7306 PINDMS PINDMS 0.0000
-3.9289 PINDMS PPER3MS 0.0000
-2.0207 PINDMS PPOBJMP -1.3043
-1.1696 PINDMS PPOBJMS -2.6338
-1.3365 PINDMS PREFMS -1.2284
-2.3842 PINDMS PRELMS -0.8461
-1.7079 PINDMS PREP -0.3125
-1.2644 PINDMS PREPADE -1.0941
-2.9798 PINDMS PREPAU -0.2799
-3.4443 PINDMS PREPAUX -0.0067
-1.2882 PINDMS PREPDES -1.4060
-3.2439 PINDMS PREPDU -0.1781
-0.6092 PINDMS V3S -0.4908
-3.1824 PINDMS V3P -0.1731
-3.3212 PINDMS VA3P 0.0653
-1.2475 PINDMS VA3S -1.3419
-3.3948 PINDMS VE3P -0.0839
-1.4313 PINDMS VE3S -1.1210
-3.6762 PINDMS VEINF 0.0000
-1.8189 PINDMS VINF -0.5582
-3.6762 PINDMS VPPMP -0.0618
-2.5960 PINDMS VPPMS -0.2123
-2.8115 PINDMS VPPRE -0.1533
-3.9524 PINDMS XPREM 0.0000
-1.1994 PINDMS YPFAI -0.8795
-1.6446 PINDMS YPFOR 1.4670
-3.9289 PINDMS ZTRM -0.9777
-1.5481 PINTFP V3P -0.5836
-0.4110 PINTFP VE3P -0.9036
-0.2360 PINTFP YPFAI -0.7810
-0.5180 PINTFS NFP 0.0278
-1.3381 PINTFS NMS 0.0000
-0.9364 PINTFS PPOBJMS -0.7343
-0.7221 PINTFS V3S -0.9633
-0.4957 PINTFS VE3S -0.7153
-2.3255 PINTMS ADV -0.9823
-1.7286 PINTMS COSUB -0.8156
-2.3464 PINTMS DETFS -0.2646
-2.8323 PINTMS DETMP -0.8596
-2.6104 PINTMS DETMS -0.1331
-1.7542 PINTMS NMP -0.3161
-2.4874 PINTMS PDEMMS -0.2196
-2.7597 PINTMS PPER1S -0.2222
-2.4477 PINTMS PPER2P -0.3129
-1.9083 PINTMS PPOBJMP -0.8853
-1.9036 PINTMS PREFMS -1.8202
-0.7900 PINTMS V3S -2.0871
-0.3355 PINTMS VA3S -1.9915
-3.2368 PINTMS VE3P -1.1098
-0.7980 PINTMS VE3S -1.8504
-1.4418 PINTMS VINF -0.0861
-3.0286 PINTMS VPPMS 0.0000
-1.0321 PINTMS YPFAI -0.6994
-3.2716 PINTMS YPFOR 3.9509
-2.6549 PPER1S ADV -0.2890
-0.7658 PPER1S ADVNE -2.2528
-3.3953 PPER1S AMS 0.0000
-3.5336 PPER1S COCO 0.0000
-2.9524 PPER1S DETFS 0.0335
-3.3227 PPER1S DETMS 0.1923
-2.9384 PPER1S MOTINC 0.0000
-3.6963 PPER1S NFS 0.0000
-2.8685 PPER1S NMS -0.0644
-3.6963 PPER1S PDEMFS 0.0000
-3.6238 PPER1S PPER1S 0.0000
-2.3992 PPER1S PPOBJFS -1.6355
-1.5873 PPER1S PPOBJMP -1.6576
-0.9328 PPER1S PPOBJMS -2.1924
-3.4589 PPER1S PRELMS 0.0000
-3.5916 PPER1S PREP 0.0000
-2.8804 PPER1S PREPADE -0.4133
-0.4455 PPER1S V1S -0.7351
-0.6829 PPER1S VA1S -0.4792
-1.0217 PPER1S VE1S -0.2127
-2.8864 PPER1S VINF -0.0291
-2.6924 PPER1S VPPMS -0.0942
-2.3295 PPER1S YPFAI -0.1594
-2.6408 PPER1S YPFOR 2.9332
-2.1923 PPER1P ADV -0.3022
-0.8712 PPER1P ADVNE -2.7978
-2.8215 PPER1P ADVPAS 0.0000
-2.7626 PPER1P AMP -0.1069
-3.2522 PPER1P COCO 0.0000
-3.2715 PPER1P COSUB 0.0000
-3.4098 PPER1P DETFP -0.2876
-2.9704 PPER1P DETFS -0.0007
-2.8430 PPER1P DETMP -0.1119
-2.8286 PPER1P DETMS 0.0438
-2.9237 PPER1P MOTINC 0.0000
-3.1225 PPER1P NMP -0.3990
-1.5198 PPER1P PPER1P -2.1989
-2.6271 PPER1P PPOBJFS -0.7071
-1.6445 PPER1P PPOBJMP -1.1696
-1.4484 PPER1P PPOBJMS -1.5773
-3.1515 PPER1P PRELMP 0.0000
-2.3129 PPER1P PREP -0.3229
-2.4044 PPER1P PREPADE -0.5805
-3.3586 PPER1P PREPDU 0.0781
-0.4586 PPER1P V1P -1.1576
-1.4012 PPER1P V3S -0.6687
-2.6645 PPER1P V3P -0.5376
-0.7560 PPER1P VA1P -1.5006
-3.0824 PPER1P VA3P -0.5091
-1.5902 PPER1P VA3S -1.3892
-0.9197 PPER1P VE1P -1.0209
-2.9418 PPER1P VE3S -1.0323
-1.9764 PPER1P VINF -0.3388
-3.3834 PPER1P VPPMP 0.0000
-2.7274 PPER1P VPPMS -0.0669
-1.7963 PPER1P YPFAI -0.6318
-2.4017 PPER1P YPFOR 2.8179
-1.1903 PPER2S ADV 0.0000
-1.1903 PPER2S COSUB 0.0000
-1.3567 PPER2S PREP 0.0000
-1.2105 PPER2S PREPADE 0.0000
-1.1014 PPER2S VPPMS 0.0000
-0.6351 PPER2S YPFAI -0.0450
-0.8795 PPER2S YPFOR 3.3769
-1.7783 PPER2P ADV -0.3423
-1.0730 PPER2P ADVNE -2.5060
-1.8113 PPER2P ADVPAS -0.2620
-3.0487 PPER2P AMP 0.0000
-2.2036 PPER2P AMS -0.1989
-2.4368 PPER2P COCO -0.2549
-1.4456 PPER2P COSUB -0.3716
-1.7246 PPER2P DETFS -0.6414
-2.3192 PPER2P DETMP -0.2668
-1.8300 PPER2P DETMS -0.2513
-2.7283 PPER2P MOTINC 0.0000
-2.7678 PPER2P NFS 0.0000
-2.8113 PPER2P NMS 0.0000
-1.6129 PPER2P PPER2P -1.2610
-1.6262 PPER2P PPOBJMP -0.8530
-1.2900 PPER2P PPOBJMS -1.2954
-1.9111 PPER2P PREP -0.2208
-1.7417 PPER2P PREPADE -0.2691
-2.9761 PPER2P PREPAU -0.5158
-2.9439 PPER2P PREPAUX 0.0000
-2.5337 PPER2P PREPDES -1.3655
-2.6921 PPER2P PREPDU 0.0024
-0.4465 PPER2P V2P -0.4372
-0.9442 PPER2P VA2P -0.8141
-1.1461 PPER2P VE2P -0.3495
-1.5729 PPER2P VINF -0.1966
-2.8596 PPER2P VPPMP 0.0000
-1.6383 PPER2P VPPMS -0.0893
-1.5001 PPER2P YPFAI -0.2737
-1.5931 PPER2P YPFOR 2.5331
-1.5482 PPER3FS ADV -0.5440
-1.0103 PPER3FS ADVNE -1.9232
-1.8846 PPER3FS ADVPAS -0.3397
-2.2965 PPER3FS AFS -0.4229
-3.2533 PPER3FS AINDFS 0.0000
-3.7917 PPER3FS CHIF 0.0000
-2.3041 PPER3FS COCO -0.2344
-2.6129 PPER3FS COSUB -0.1993
-3.1170 PPER3FS DETFP 0.1036
-2.3306 PPER3FS DETFS -0.1252
-2.8077 PPER3FS DETMP -0.2202
-2.3782 PPER3FS DETMS -0.5049
-2.9354 PPER3FS MOTINC 0.1623
-3.2420 PPER3FS NFS -0.2911
-3.2098 PPER3FS NMS -0.4058
-3.7539 PPER3FS PDEMFS 0.0000
-3.0201 PPER3FS PPOBJFS -1.0734
-2.0228 PPER3FS PPOBJMP -1.3622
-1.5039 PPER3FS PPOBJMS -1.8114
-1.2095 PPER3FS PREFFS -2.2074
-2.7361 PPER3FS PREFMS -1.2357
-2.9140 PPER3FS PRELFS 0.1057
-2.0795 PPER3FS PREP -0.1052
-2.0659 PPER3FS PREPADE -0.1109
-2.9638 PPER3FS PREPAU -0.0950
-3.4528 PPER3FS PREPAUX 0.0000
-3.0477 PPER3FS PREPDES -0.0604
-3.5108 PPER3FS PREPDU -0.4660
-0.4465 PPER3FS V3S -1.1536
-0.8679 PPER3FS VA3S -1.4744
-3.4351 PPER3FS VE3P 0.0000
-0.8981 PPER3FS VE3S -1.7460
-2.8287 PPER3FS VEINF -0.5804
-2.1332 PPER3FS VINF -0.0502
-2.1393 PPER3FS VPPFS -0.3196
-1.9262 PPER3FS VPPMS -0.2746
-1.3854 PPER3FS YPFAI -0.6682
-1.7463 PPER3FS YPFOR 1.9434
-1.4767 PPER3FP ADV -0.4434
-0.9691 PPER3FP ADVNE -1.7911
-1.9024 PPER3FP ADVPAS -0.2561
-2.0968 PPER3FP AFP -0.4842
-3.1488 PPER3FP AINDFP 0.0000
-2.7923 PPER3FP COCO 0.0000
-1.8064 PPER3FP COSUB -0.8303
-2.7278 PPER3FP DETFP 0.2992
-2.4742 PPER3FP DETFS -0.1312
-3.0141 PPER3FP DETMP -0.0400
-2.4742 PPER3FP DETMS -0.2178
-2.9349 PPER3FP MOTINC 0.0000
-3.1488 PPER3FP NFS 0.0000
-2.7923 PPER3FP PPOBJFS -0.3186
-2.0933 PPER3FP PPOBJMP -0.9531
-1.5969 PPER3FP PPOBJMS -1.4438
-1.6139 PPER3FP PREFFP 0.0000
-2.2457 PPER3FP PREP -0.0434
-2.1410 PPER3FP PREPADE -0.2649
-3.1110 PPER3FP PREPAU -0.4811
-0.4331 PPER3FP V3P -0.7379
-0.9009 PPER3FP VA3P -0.6970
-0.7762 PPER3FP VE3P -1.3828
-2.8285 PPER3FP VEINF -0.3798
-2.1690 PPER3FP VINF -0.0359
-1.9834 PPER3FP VPPFP -0.1166
-2.0472 PPER3FP VPPMS -0.2992
-1.4643 PPER3FP YPFAI -0.5473
-2.0535 PPER3FP YPFOR 2.8934
-1.0899 PPER3MS ADV -1.6982
-0.9441 PPER3MS ADVNE -2.4513
-2.1448 PPER3MS ADVPAS -0.6851
-4.3194 PPER3MS AINDFS -0.0296
-2.6028 PPER3MS AMS -0.6200
-4.0183 PPER3MS CHIF 0.0000
-3.1394 PPER3MS COCO -0.2264
-2.5127 PPER3MS COSUB -0.1962
-3.4273 PPER3MS DETFP -0.0708
-2.7449 PPER3MS DETFS -0.3423
-3.6442 PPER3MS DETMP -0.1923
-2.5924 PPER3MS DETMS -0.3513
-2.8481 PPER3MS MOTINC -0.0914
-3.4236 PPER3MS NFS -0.1794
-3.2913 PPER3MS NMS -0.2943
-2.8691 PPER3MS PPOBJFS -2.1790
-1.8165 PPER3MS PPOBJMP -1.4688
-1.4055 PPER3MS PPOBJMS -2.1117
-1.1353 PPER3MS PREFMS -1.8626
-2.4340 PPER3MS PREP -0.2043
-2.3597 PPER3MS PREPADE -0.0971
-3.4127 PPER3MS PREPAU -0.1230
-3.7794 PPER3MS PREPAUX -0.3395
-3.3556 PPER3MS PREPDES -0.0876
-3.6321 PPER3MS PREPDU -0.1040
-0.4613 PPER3MS V3S -1.0771
-3.6262 PPER3MS V3P -0.0692
-4.0183 PPER3MS VA3P -0.1537
-0.9430 PPER3MS VA3S -1.7439
-3.9044 PPER3MS VE3P -0.0508
-0.9300 PPER3MS VE3S -2.0650
-3.2574 PPER3MS VEINF -0.5104
-2.2076 PPER3MS VINF -0.1091
-4.4541 PPER3MS VPPFP 0.0000
-3.8827 PPER3MS VPPFS -0.0709
-4.0483 PPER3MS VPPMP 0.0000
-1.6177 PPER3MS VPPMS -0.7982
-1.6012 PPER3MS YPFAI -0.8541
-1.9381 PPER3MS YPFOR 1.4727
-1.9176 PPER3MP ADV -0.5654
-0.9485 PPER3MP ADVNE -2.4811
-2.0467 PPER3MP ADVPAS -0.2761
-3.6149 PPER3MP AINDMP 0.0000
-2.4921 PPER3MP AMP -0.5293
-2.9916 PPER3MP COCO 0.0000
-2.6417 PPER3MP COSUB -0.0778
-3.2112 PPER3MP DETFP -0.3622
-2.5454 PPER3MP DETFS -0.1634
-2.8825 PPER3MP DETMP -0.0854
-2.6296 PPER3MP DETMS -0.1287
-2.7997 PPER3MP MOTINC -0.1179
-3.2996 PPER3MP NFS -0.1168
-2.8615 PPER3MP NMS -0.3725
-2.7997 PPER3MP PPOBJFS -1.6798
-1.8950 PPER3MP PPOBJMP -1.1920
-1.4450 PPER3MP PPOBJMS -2.2692
-1.1449 PPER3MP PREFMP -0.8662
-2.3392 PPER3MP PREP -0.2598
-2.2831 PPER3MP PREPADE -0.2575
-3.4485 PPER3MP PREPAU -0.1423
-3.5357 PPER3MP PREPAUX 0.0000
-2.9780 PPER3MP PREPDES -0.5139
-3.6149 PPER3MP PREPDU -0.6209
-3.5357 PPER3MP V3S 0.0000
-0.4324 PPER3MP V3P -1.2617
-0.7945 PPER3MP VA3P -1.3542
-0.8732 PPER3MP VE3P -1.5149
-3.2469 PPER3MP VEINF -0.2396
-2.2251 PPER3MP VINF -0.0622
-2.3438 PPER3MP VPPMP -0.1529
-2.0201 PPER3MP VPPMS -0.2393
-1.6558 PPER3MP YPFAI -0.6503
-2.1170 PPER3MP YPFOR 2.3561
-2.8704 PPOBJFP ADV 0.0000
-2.5162 PPOBJFP ADVNE -0.4802
-2.1083 PPOBJFP AFP -0.1176
-2.6411 PPOBJFP AINDFP -0.1717
-1.4468 PPOBJFP AMS -1.1657
-0.4645 PPOBJFP CHIF -1.6506
-2.3571 PPOBJFP COCO -0.0718
-2.3131 PPOBJFP COSUB -0.1257
-2.7270 PPOBJFP DETFP 0.4528
-2.3571 PPOBJFP DETFS -0.2318
-2.4260 PPOBJFP DETMP -0.1472
-2.4540 PPOBJFP DETMS -0.2786
-2.3457 PPOBJFP MOTINC -0.2245
-2.2731 PPOBJFP PPOBJMS -1.6385
-1.6783 PPOBJFP PREFMS -1.2583
-2.3996 PPOBJFP PRELMP -0.0769
-1.6844 PPOBJFP PREP -0.4009
-2.5162 PPOBJFP PREPADE -0.2248
-2.6301 PPOBJFP PREPAUX -0.9863
-2.3345 PPOBJFP PREPDES -0.3441
-1.3871 PPOBJFP V3S -0.7253
-1.3554 PPOBJFP V3P -0.6044
-2.0768 PPOBJFP VA3P -0.6463
-1.6236 PPOBJFP VA3S -1.1321
-2.9769 PPOBJFP VE3P -0.6454
-2.4998 PPOBJFP VE3S -0.2308
-1.4301 PPOBJFP VINF -0.8275
-0.5311 PPOBJFP VPPRE -0.6405
-1.3577 PPOBJFP YPFAI -0.2581
-1.7058 PPOBJFP YPFOR 2.5037
-1.7778 PPOBJFS ADV -0.6470
-3.4820 PPOBJFS ADVNE 0.0000
-1.0229 PPOBJFS AFS -0.9801
-3.4585 PPOBJFS AINDFP 0.1379
-1.8722 PPOBJFS AINDFS 0.4768
-1.6987 PPOBJFS AMS -1.3714
-3.6233 PPOBJFS CHIF 0.0000
-3.0745 PPOBJFS COCO -0.1329
-1.8686 PPOBJFS COSUB -0.1949
-1.7651 PPOBJFS DETFS -0.2816
-1.7782 PPOBJFS DETMS -0.2628
-2.2558 PPOBJFS MOTINC -0.1392
-0.9583 PPOBJFS NFS -0.8633
-1.1503 PPOBJFS NMS -1.1692
-3.5911 PPOBJFS PDEMMS 0.0000
-3.2602 PPOBJFS PPER3MS -0.1850
-2.9969 PPOBJFS PPOBJMP -0.5030
-3.3571 PPOBJFS PPOBJMS -0.4954
-3.5068 PPOBJFS PREFMS -0.2251
-1.7545 PPOBJFS PRELFS -0.8632
-2.5498 PPOBJFS PREP -0.5734
-2.6474 PPOBJFS PREPADE -0.5258
-2.6804 PPOBJFS V1P -0.2494
-2.0400 PPOBJFS V1S -0.8172
-3.3948 PPOBJFS V2S -0.1546
-1.0504 PPOBJFS V3S -0.6830
-1.6257 PPOBJFS V3P -0.6151
-3.3393 PPOBJFS VA3P -0.0745
-0.7057 PPOBJFS VINF -0.5728
-3.0560 PPOBJFS VPPMS 0.0000
-1.9620 PPOBJFS VPPRE -0.6741
-3.5068 PPOBJFS XFAMIL 0.0000
-2.3755 PPOBJFS XPAYFS -0.3242
-2.6102 PPOBJFS XPREF -0.6252
-3.6959 PPOBJFS XVILLE 0.0000
-0.7089 PPOBJFS YPFAI -0.6656
-1.2462 PPOBJFS YPFOR 1.5390
-3.6581 PPOBJFS ZTRM -0.7781
-1.8227 PPOBJMP ADV -0.6880
-2.3367 PPOBJMP ADVNE -0.5366
-3.6808 PPOBJMP AFP -0.6876
-3.8057 PPOBJMP AINDFP 0.0000
-3.6808 PPOBJMP AINDFS 0.3684
-2.1706 PPOBJMP AINDMP -0.1416
-2.3475 PPOBJMP AMP -0.2640
-3.7600 PPOBJMP AMS 0.0000
-2.2916 PPOBJMP CHIF -0.5045
-2.2541 PPOBJMP COCO -0.2756
-2.3254 PPOBJMP COSUB -0.1539
-2.4245 PPOBJMP DETFP 0.0841
-2.3351 PPOBJMP DETFS 0.0100
-2.7347 PPOBJMP DETMP -0.0836
-2.0856 PPOBJMP DETMS -0.4282
-2.6631 PPOBJMP MOTINC -0.1371
-2.2807 PPOBJMP NFP -0.1461
-3.4812 PPOBJMP NFS -0.2392
-2.5956 PPOBJMP NMP -0.2858
-3.8057 PPOBJMP NMS 0.0000
-3.7388 PPOBJMP PDEMMS -0.1835
-3.4275 PPOBJMP PINDMP -0.5645
-3.7186 PPOBJMP PINDMS 0.0000
-3.7186 PPOBJMP PPER3MS 0.0000
-3.9471 PPOBJMP PPER3MP 0.0000
-2.3152 PPOBJMP PPOBJMP -1.0816
-2.0760 PPOBJMP PPOBJMS -1.0820
-2.3798 PPOBJMP PREFMP -0.5076
-3.3286 PPOBJMP PREFMS -0.4638
-2.3509 PPOBJMP PRELMP -0.2975
-3.8057 PPOBJMP PRELMS 0.0000
-2.0482 PPOBJMP PREP -0.2940
-2.2159 PPOBJMP PREPADE -0.2342
-3.3206 PPOBJMP PREPAU -0.2392
-3.1918 PPOBJMP PREPAUX -0.4406
-2.6077 PPOBJMP PREPDES -1.2008
-3.6138 PPOBJMP PREPDU -0.2899
-2.1321 PPOBJMP V1P -0.2889
-1.8934 PPOBJMP V1S -0.4326
-2.5669 PPOBJMP V2P -0.4366
-3.6808 PPOBJMP V2S 0.0000
-0.7395 PPOBJMP V3S -0.6684
-1.3271 PPOBJMP V3P -0.5789
-2.9711 PPOBJMP VA1P -0.5286
-2.5559 PPOBJMP VA1S -0.2109
-3.6296 PPOBJMP VA2P -0.2202
-1.7119 PPOBJMP VA3P -0.4305
-1.4182 PPOBJMP VA3S -1.1433
-2.7127 PPOBJMP VAINF -1.1406
-2.5491 PPOBJMP VE1P -0.4908
-3.4699 PPOBJMP VE2P 0.0000
-1.8867 PPOBJMP VE3P -0.6192
-1.5056 PPOBJMP VE3S -1.2041
-2.8763 PPOBJMP VEINF -0.3102
-0.7636 PPOBJMP VINF -0.3960
-3.1802 PPOBJMP VPPMP -0.3006
-3.6631 PPOBJMP VPPMS 0.0000
-0.6071 PPOBJMP VPPRE -0.2127
-1.1440 PPOBJMP YPFAI -0.5521
-1.6156 PPOBJMP YPFOR 1.5846
-1.7863 PPOBJMS ADV -0.8725
-3.3392 PPOBJMS ADVNE -0.5491
-2.6810 PPOBJMS ADVPAS -0.8597
-3.1830 PPOBJMS AFS -1.8765
-1.9012 PPOBJMS AMS -0.6389
-2.6561 PPOBJMS CHIF -0.5260
-2.1683 PPOBJMS COCO -0.4123
-2.6200 PPOBJMS COSUB -0.5626
-2.9979 PPOBJMS DETFP 0.0418
-2.4777 PPOBJMS DETFS -0.3438
-3.0069 PPOBJMS DETMP -0.1135
-2.4840 PPOBJMS DETMS -0.4403
-1.9639 PPOBJMS MOTINC -0.2503
-1.4340 PPOBJMS NFS -1.0672
-2.7814 PPOBJMS NMP -0.5153
-1.8856 PPOBJMS NMS -0.6169
-3.9348 PPOBJMS PDEMFS 0.0000
-3.5218 PPOBJMS PDEMMS 0.1186
-2.4628 PPOBJMS PINDMS -1.1910
-2.8410 PPOBJMS PPER1S 0.3689
-3.9611 PPOBJMS PPER3MS 0.0000
-3.7503 PPOBJMS PPOBJFS -1.1035
-1.9064 PPOBJMS PPOBJMS -0.9163
-3.7029 PPOBJMS PRELMP -1.4114
-1.9449 PPOBJMS PRELMS -0.4719
-1.9661 PPOBJMS PREP -0.2766
-2.2515 PPOBJMS PREPADE -0.2857
-2.9478 PPOBJMS PREPAU -0.8045
-3.9892 PPOBJMS PREPAUX 0.0000
-3.1122 PPOBJMS PREPDES -0.2770
-3.6739 PPOBJMS PREPDU -0.2372
-2.2072 PPOBJMS V1P -0.5752
-1.4231 PPOBJMS V1S -0.5103
-2.3171 PPOBJMS V2P -0.4476
-3.0861 PPOBJMS V2S -0.0025
-0.6620 PPOBJMS V3S -0.6510
-1.0773 PPOBJMS V3P -0.6948
-2.3177 PPOBJMS VA1P -0.6161
-2.0254 PPOBJMS VA1S -1.0704
-2.8958 PPOBJMS VA2P -0.4951
-3.1567 PPOBJMS VA2S -0.0655
-1.3738 PPOBJMS VA3P -0.9435
-0.8385 PPOBJMS VA3S -1.2162
-2.1605 PPOBJMS VAINF -2.1889
-3.2622 PPOBJMS VE1P -0.1643
-2.0460 PPOBJMS VE1S -0.7896
-3.9611 PPOBJMS VE2P 0.0000
-3.2732 PPOBJMS VE2S -0.0921
-1.6278 PPOBJMS VE3P -0.4730
-1.1883 PPOBJMS VE3S -0.5259
-1.9636 PPOBJMS VEINF -0.3037
-1.2581 PPOBJMS VINF -0.4398
-4.0513 PPOBJMS VPPMP 0.0000
-3.0349 PPOBJMS VPPMS -0.4886
-1.3571 PPOBJMS VPPRE -0.1657
-2.7503 PPOBJMS XFAMIL -0.2467
-3.0513 PPOBJMS XPAYFS -0.0063
-3.2676 PPOBJMS XPAYMS -0.0398
-3.9892 PPOBJMS XPREF 0.0000
-2.0789 PPOBJMS XPREM -0.2404
-2.4689 PPOBJMS XSOC -0.4881
-3.9348 PPOBJMS XVILLE 0.0000
-1.3529 PPOBJMS YPFAI -0.7310
-2.1972 PPOBJMS YPFOR 2.0621
-0.1418 PREFFP V3P -0.4441
-0.6319 PREFFP VE3P -0.5890
-1.4302 PREFFP VINF 0.0000
-3.1124 PREFFS AFS -0.6232
-2.6712 PREFFS MOTINC -0.2561
-1.6653 PREFFS PPOBJMS -1.4903
-0.2643 PREFFS V3S -0.9687
-0.6192 PREFFS VE3S -1.6962
-2.4390 PREFFS VEINF -0.7651
-0.7283 PREFFS VINF -0.4046
-2.5309 PREFMP MOTINC -0.2457
-2.3145 PREFMP PPOBJFP -2.0541
-1.6833 PREFMP PPOBJMS -1.8428
-2.3257 PREFMP V3S -1.4979
-0.1645 PREFMP V3P -0.8758
-0.6239 PREFMP VE3P -1.6891
-1.5638 PREFMP VINF -0.7049
-1.7803 PREFMP VPPRE -0.6209
-2.9748 PREFMS ADV -2.0213
-4.2679 PREFMS DETFS 0.0000
-2.2448 PREFMS MOTINC -0.3298
-3.4580 PREFMS NFS -0.3842
-3.9476 PREFMS NMS -0.3123
-1.5196 PREFMS PPER3MS -1.4881
-2.0122 PREFMS PPER3MP -1.3614
-3.5240 PREFMS PPOBJFP -0.7500
-3.7908 PREFMS PPOBJFS -0.3093
-1.3484 PREFMS PPOBJMS -2.5677
-3.3955 PREFMS V1S -0.6670
-0.3901 PREFMS V3S -0.9441
-1.5880 PREFMS V3P -0.9076
-2.0014 PREFMS VE3P -1.3714
-0.8867 PREFMS VE3S -2.0851
-2.1382 PREFMS VEINF -1.4111
-0.5437 PREFMS VINF -0.6307
-1.4107 PREFMS VPPRE -0.4672
-2.6965 PREFMS YPFAI -1.0190
-2.6220 PRELFP ADV -0.5026
-1.2743 PRELFP ADVNE -1.7450
-3.1397 PRELFP AINDFS -0.0839
-3.1397 PRELFP AINDMP 0.0000
-2.8139 PRELFP CHIF 0.0729
-1.8349 PRELFP DETFP -0.5705
-1.3573 PRELFP DETFS -0.1571
-1.5454 PRELFP DETMP -0.1662
-1.3260 PRELFP DETMS -0.9049
-2.3020 PRELFP MOTINC 0.0891
-3.3288 PRELFP NFS 0.0000
-2.9722 PRELFP NMP -0.2296
-2.3449 PRELFP NMS -0.5190
-3.1660 PRELFP PDEMFP 0.0000
-2.9552 PRELFP PINDFP -0.3555
-2.5189 PRELFP PINDFS -0.2300
-2.1580 PRELFP PINDMS -0.4845
-2.4407 PRELFP PPER1S -0.0476
-2.2118 PRELFP PPER1P -0.5503
-3.3288 PRELFP PPER2P 0.0000
-2.0937 PRELFP PPER3FS -1.0187
-2.4257 PRELFP PPER3FP -0.8304
-1.3767 PRELFP PPER3MS -1.1410
-1.7267 PRELFP PPER3MP -1.3479
-1.7938 PRELFP PPOBJFP -1.8481
-2.0824 PRELFP PPOBJFS -1.9764
-1.2859 PRELFP PPOBJMS -1.9942
-2.0670 PRELFP PREFMS -1.1556
-2.9388 PRELFP PREPADE -0.2502
-1.9033 PRELFP V3S -0.9131
-0.3955 PRELFP V3P -0.9689
-0.9264 PRELFP VA3P -0.7381
-2.7791 PRELFP VA3S -0.6441
-1.2005 PRELFP VE3P -0.8382
-2.5128 PRELFP VE3S -0.8950
-3.0914 PRELFP XFAMIL 0.0000
-2.6712 PRELFP XPREM -0.0426
-3.1941 PRELFP XSOC 0.0000
-2.8788 PRELFP XVILLE 0.0000
-2.2596 PRELFP YPFAI -0.2828
-2.8650 PRELFP YPFOR 3.5249
-2.8562 PRELFS ADV -0.5592
-1.4860 PRELFS ADVNE -1.5656
-3.2973 PRELFS AFS -0.9689
-3.7617 PRELFS AINDFP -0.7232
-3.0128 PRELFS AINDFS -0.4073
-2.3159 PRELFS AINDMP -0.5851
-2.6506 PRELFS AINDMS -0.5894
-3.2426 PRELFS AMP -0.3166
-3.2096 PRELFS CHIF -0.3065
-1.7140 PRELFS DETFP -0.2791
-1.7270 PRELFS DETFS -0.4107
-1.4055 PRELFS DETMP -0.2487
-1.0440 PRELFS DETMS -0.6697
-2.5818 PRELFS MOTINC -0.1369
-2.7152 PRELFS NFS -0.5090
-3.7255 PRELFS NMP -0.4215
-2.5919 PRELFS NMS -0.8743
-3.5552 PRELFS PDEMFP -0.2526
-3.0479 PRELFS PDEMFS -0.3610
-3.2721 PRELFS PDEMMP -0.3059
-3.2601 PRELFS PDEMMS -0.0340
-3.4074 PRELFS PINDFP -0.4265
-4.0095 PRELFS PINDFS 0.0000
-3.3172 PRELFS PINDMP -0.1541
-2.4819 PRELFS PINDMS -0.7636
-2.6306 PRELFS PPER1S -0.4194
-2.2426 PRELFS PPER1P -1.0241
-3.4799 PRELFS PPER2P -0.4123
-2.4920 PRELFS PPER3FS -1.1976
-3.4606 PRELFS PPER3FP 0.0142
-1.7472 PRELFS PPER3MS -1.3123
-2.2085 PRELFS PPER3MP -0.8923
-3.8224 PRELFS PPOBJFP -0.5124
-1.8097 PRELFS PPOBJFS -1.7428
-2.1711 PRELFS PPOBJMP -1.6223
-1.7987 PRELFS PPOBJMS -1.5547
-1.2464 PRELFS PREFFS -2.2997
-2.2358 PRELFS PREFMP -1.7772
-3.0028 PRELFS PREFMS -2.1007
-3.0665 PRELFS PREP -0.0370
-3.4332 PRELFS PREPADE -0.2080
-3.8929 PRELFS V1S 0.0000
-3.9473 PRELFS V2P 0.0000
-0.3516 PRELFS V3S -1.8474
-2.2138 PRELFS V3P -0.7564
-2.6747 PRELFS VA3P -0.6370
-1.1354 PRELFS VA3S -1.4759
-3.7810 PRELFS VE1S 0.0000
-2.7018 PRELFS VE3P -0.9899
-1.1809 PRELFS VE3S -1.6755
-3.9193 PRELFS VINF 0.0000
-3.9193 PRELFS VPPRE 0.0000
-2.9139 PRELFS XFAMIL -0.2989
-4.0820 PRELFS XPAYMS 0.0000
-2.9220 PRELFS XPREF 0.0050
-2.2203 PRELFS XPREM 0.0010
-3.5323 PRELFS XSOC -0.1488
-3.4606 PRELFS XVILLE -0.2010
-1.5152 PRELFS YPFAI -0.9249
-3.6049 PRELFS YPFOR 3.5116
-2.1267 PRELMP ADV -1.1308
-1.2159 PRELMP ADVNE -1.5040
-3.2580 PRELMP AFP -0.6061
-3.3919 PRELMP AINDFS -0.8869
-3.1848 PRELMP AINDMP -0.6618
-3.2950 PRELMP AMS -0.4135
-2.1969 PRELMP CHIF -0.3964
-2.3117 PRELMP DETFP -0.2444
-1.7895 PRELMP DETFS -0.4916
-1.9802 PRELMP DETMP -0.1996
-1.7800 PRELMP DETMS -0.5748
-2.6929 PRELMP MOTINC 0.0828
-3.2669 PRELMP NFS 0.0000
-3.5502 PRELMP NMP 0.0000
-2.9797 PRELMP NMS -0.6383
-3.6472 PRELMP PDEMMP -0.2785
-2.8478 PRELMP PDEMMS -0.4227
-3.7441 PRELMP PINDMP 0.0000
-1.8386 PRELMP PINDMS -0.7527
-2.8690 PRELMP PPER1S -0.7840
-2.6515 PRELMP PPER1P -0.3206
-3.5010 PRELMP PPER2P -0.3007
-2.6018 PRELMP PPER3FS -1.3897
-2.9439 PRELMP PPER3FP -0.5892
-1.8440 PRELMP PPER3MS -1.2114
-2.2633 PRELMP PPER3MP -1.3892
-3.1488 PRELMP PPOBJFP -1.4749
-2.3218 PRELMP PPOBJFS -1.7962
-1.5829 PRELMP PPOBJMP -1.6864
-1.4051 PRELMP PPOBJMS -1.6281
-1.0423 PRELMP PREFMP -1.7921
-2.6694 PRELMP PREFMS -0.8208
-2.9108 PRELMP PREP -0.0267
-3.2406 PRELMP PREPADE -0.2553
-3.0291 PRELMP V1P -0.1306
-3.2322 PRELMP V2P -0.0188
-1.8901 PRELMP V3S -1.1904
-0.4578 PRELMP V3P -1.2345
-3.2669 PRELMP VA1P -0.1639
-3.5332 PRELMP VA2P 0.0381
-0.9037 PRELMP VA3P -1.3910
-2.9525 PRELMP VA3S -0.8726
-3.3461 PRELMP VE1P -0.0308
-3.3919 PRELMP VE2P -0.2087
-1.2571 PRELMP VE3P -1.0415
-2.8690 PRELMP VE3S -1.5252
-3.8690 PRELMP VINF 0.0000
-3.8021 PRELMP XFAMIL 0.0000
-3.6058 PRELMP XPREF -0.0652
-2.8654 PRELMP XPREM -0.0585
-3.7177 PRELMP XVILLE 0.0000
-0.9555 PRELMP YPFAI -1.5096
-3.1221 PRELMP YPFOR 3.2040
-1.8733 PRELMS ADV -0.8245
-1.1574 PRELMS ADVNE -1.5308
-3.3119 PRELMS AFP -0.1586
-2.9061 PRELMS AINDFP -0.1395
-3.0707 PRELMS AINDFS -0.2152
-2.8761 PRELMS AINDMP -0.2850
-3.1537 PRELMS AINDMS -0.9394
-3.7890 PRELMS AMP 0.0000
-2.9010 PRELMS AMS -0.5181
-1.6013 PRELMS CHIF -0.7730
-2.8113 PRELMS COCO -0.2332
-2.1340 PRELMS COSUB -1.0062
-1.9462 PRELMS DETFP -0.4075
-1.0436 PRELMS DETFS -0.2625
-1.6752 PRELMS DETMP -0.1222
-1.4341 PRELMS DETMS -0.7182
-2.0861 PRELMS MOTINC -0.2066
-3.3119 PRELMS NFS -0.2776
-2.8786 PRELMS NMP -0.6259
-2.1194 PRELMS NMS -0.6358
-4.0522 PRELMS PDEMFP 0.0000
-3.5873 PRELMS PDEMFS -0.3859
-3.9553 PRELMS PDEMMP 0.0000
-2.5010 PRELMS PDEMMS -0.2103
-3.0310 PRELMS PINDFS 0.1021
-1.5641 PRELMS PINDMS -1.1278
-2.2213 PRELMS PPER1S -0.5009
-2.1810 PRELMS PPER1P -0.6369
-2.7812 PRELMS PPER2P -0.5413
-1.7624 PRELMS PPER3FS -1.3102
-2.5207 PRELMS PPER3FP -0.7184
-1.0420 PRELMS PPER3MS -1.6546
-1.8367 PRELMS PPER3MP -1.2799
-2.9524 PRELMS PPOBJFP -1.4601
-3.5632 PRELMS PPOBJFS -1.5176
-1.6692 PRELMS PPOBJMP -1.8739
-1.5328 PRELMS PPOBJMS -1.3491
-2.4821 PRELMS PREFMP -1.5389
-1.1354 PRELMS PREFMS -1.7111
-2.2427 PRELMS PREP -0.1047
-2.3950 PRELMS PREPADE -0.6261
-3.5082 PRELMS PREPAU -0.5480
-3.5751 PRELMS PREPDES -0.1815
-3.7000 PRELMS PREPDU -0.0310
-2.9192 PRELMS V1S -0.4802
-3.5873 PRELMS V2P -1.1369
-4.0175 PRELMS V2S 0.0000
-0.6952 PRELMS V3S -1.3382
-2.0700 PRELMS V3P -0.6096
-3.3533 PRELMS VA1S -0.1343
-2.8834 PRELMS VA3P -0.5723
-1.2109 PRELMS VA3S -1.3987
-3.9273 PRELMS VE2S -0.8718
-2.1781 PRELMS VE3P -0.5407
-1.3796 PRELMS VE3S -1.1534
-3.6690 PRELMS VEINF -0.2573
-2.5703 PRELMS VINF -0.3254
-3.8304 PRELMS VPPMS 0.0000
-2.9730 PRELMS XFAMIL -0.4027
-3.5632 PRELMS XPAYMS -0.2302
-3.3390 PRELMS XPREF -0.0080
-2.5539 PRELMS XPREM -0.1681
-2.9641 PRELMS XSOC -0.4872
-2.7812 PRELMS XVILLE -0.5718
-1.3142 PRELMS YPFAI -1.1692
-2.2160 PRELMS YPFOR 2.1147
-1.9416 PREP ADV -1.1044
-3.2055 PREP ADVNE -1.3969
-4.8540 PREP ADVPAS -0.4198
-2.9008 PREP AFP -1.1366
-2.8424 PREP AFS -1.3608
-2.6521 PREP AINDFP -0.6065
-2.5934 PREP AINDFS -0.8063
-2.3737 PREP AINDMP -1.0388
-2.6500 PREP AINDMS -0.9159
-2.5230 PREP AMP -0.7908
-2.4685 PREP AMS -0.9820
-1.1675 PREP CHIF -0.8598
-3.2300 PREP COCO -0.7714
-2.5652 PREP COSUB -0.8565
-1.2502 PREP DETFP -1.1024
-0.6844 PREP DETFS -1.1066
-1.0708 PREP DETMP -1.3347
-0.6970 PREP DETMS -1.1250
-3.8809 PREP DINTFP -1.6392
-3.6722 PREP DINTFS -0.8618
-4.0319 PREP DINTMP -1.3710
-3.6434 PREP DINTMS -0.7091
-1.8867 PREP MOTINC -0.0550
-1.8790 PREP NFP -0.4628
-1.2349 PREP NFS -0.8216
-1.8219 PREP NMP -0.1381
-1.1640 PREP NMS -0.1668
-3.4285 PREP PDEMFP -0.3472
-2.4730 PREP PDEMFS -0.9685
-2.8338 PREP PDEMMP -0.6828
-2.9258 PREP PDEMMS -0.9307
-3.3165 PREP PINDFP -1.1537
-3.2349 PREP PINDFS -1.3694
-2.9586 PREP PINDMP -0.8968
-2.2908 PREP PINDMS -0.8540
-3.4589 PREP PINTMS -2.2536
-4.5196 PREP PPER1S -0.0243
-5.0479 PREP PPER1P 0.0000
-3.4331 PREP PPER3FS -0.8329
-3.6521 PREP PPER3FP -0.1591
-4.1838 PREP PPER3MS -0.5816
-4.2308 PREP PPER3MP -0.5029
-3.1252 PREP PPOBJFP -1.2219
-2.0761 PREP PPOBJFS -1.3908
-2.0255 PREP PPOBJMP -0.8500
-2.5838 PREP PPOBJMS -1.5921
-4.6392 PREP PREFMP -1.6008
-2.3120 PREP PREFMS -2.1875
-2.9113 PREP PRELFP -0.4853
-2.5006 PREP PRELFS -0.3679
-2.8292 PREP PRELMP -0.5878
-2.4446 PREP PRELMS -0.9082
-2.9466 PREP PREP -0.2853
-2.2777 PREP PREPADE -1.6610
-4.4526 PREP PREPAU -0.1221
-5.1058 PREP PREPAUX 0.0000
-2.9725 PREP PREPDES -1.1565
-3.6105 PREP PREPDU -0.7000
-5.0759 PREP V1P 0.0000
-4.5707 PREP V1S -0.3500
-4.9732 PREP V2P 0.0000
-5.1058 PREP V2S 0.0000
-3.8287 PREP V3S -0.4367
-4.5892 PREP VA3S -0.6990
-2.3914 PREP VAINF -2.8399
-2.7545 PREP VEINF -0.7077
-1.2874 PREP VINF -0.5382
-5.1728 PREP VPPFP 0.0000
-4.1482 PREP VPPFS -0.0038
-4.0425 PREP VPPMP -0.0223
-3.9256 PREP VPPMS -0.2473
-4.7896 PREP VPPRE 0.0000
-2.7390 PREP XFAMIL -0.1650
-4.6609 PREP XPAYFP 0.2240
-1.5869 PREP XPAYFS -0.2395
-4.0759 PREP XPAYMP -0.4100
-2.6181 PREP XPAYMS -0.2617
-2.6839 PREP XPREF -0.3342
-2.0444 PREP XPREM -0.6877
-2.5079 PREP XSOC -0.2062
-2.2909 PREP XVILLE -0.2722
-1.9083 PREP YPFAI -1.0446
-3.2161 PREP YPFOR 1.9942
-3.9423 PREP ZTRM -2.0086
-1.8969 PREPADE ADV -0.7597
-2.9504 PREPADE ADVNE -2.3004
-4.4037 PREPADE ADVPAS -0.3191
-2.2048 PREPADE AFP -1.7257
-2.3804 PREPADE AFS -1.1899
-2.7401 PREPADE AINDFP -1.1403
-2.6389 PREPADE AINDFS -0.8760
-2.4902 PREPADE AINDMP -0.6870
-2.7919 PREPADE AINDMS -1.0845
-1.9347 PREPADE AMP -0.8462
-2.3383 PREPADE AMS -0.7713
-1.2673 PREPADE CHIF -0.6760
-4.6709 PREPADE COCO -0.2417
-4.0258 PREPADE COSUB -0.2584
-2.0038 PREPADE DETFP -0.8498
-0.6720 PREPADE DETFS -0.9190
-1.8324 PREPADE DETMP -1.3470
-1.0034 PREPADE DETMS -1.4931
-4.6039 PREPADE DINTFP -1.4143
-4.0291 PREPADE DINTFS -0.7888
-4.6566 PREPADE DINTMP -1.4204
-3.5972 PREPADE DINTMS -1.1607
-1.4086 PREPADE MOTINC -0.1151
-1.4679 PREPADE NFP -0.2936
-0.9576 PREPADE NFS -0.0488
-1.2661 PREPADE NMP -0.2348
-1.0395 PREPADE NMS -0.0531
-3.3197 PREPADE PDEMFP -0.5380
-2.6987 PREPADE PDEMFS -0.2383
-2.7813 PREPADE PDEMMP -0.6814
-2.8293 PREPADE PDEMMS -0.9446
-4.5196 PREPADE PINDFP -1.5314
-3.3706 PREPADE PINDFS -1.3410
-3.8808 PREPADE PINDMP -0.8300
-2.3612 PREPADE PINDMS -0.4656
-4.8362 PREPADE PINTFP -0.1048
-3.3439 PREPADE PINTMS -2.3344
-4.8056 PREPADE PPER1S -0.4296
-5.1703 PREPADE PPER1P 0.0000
-4.9176 PREPADE PPER2P -0.1751
-3.7297 PREPADE PPER3FS -0.8376
-4.0743 PREPADE PPER3MS -0.8749
-3.7544 PREPADE PPOBJFP -0.5114
-2.4881 PREPADE PPOBJFS -1.5116
-2.3724 PREPADE PPOBJMP -1.6532
-2.7894 PREPADE PPOBJMS -1.4278
-3.8964 PREPADE PREFMP -2.5406
-2.0302 PREPADE PREFMS -2.3044
-4.7166 PREPADE PRELMP -0.5859
-2.7493 PREPADE PRELMS -0.2693
-2.7981 PREPADE PREP -1.1219
-2.9690 PREPADE PREPADE -1.4637
-3.7920 PREPADE PREPAU -1.1224
-2.8078 PREPADE PREPDES -1.5637
-4.5405 PREPADE PREPDU -0.1708
-5.1066 PREPADE V1P 0.0000
-3.8988 PREPADE V1S -0.7428
-4.4196 PREPADE V2P -0.3343
-4.4362 PREPADE V2S -0.0926
-3.4992 PREPADE V3S -0.6127
-5.0873 PREPADE V3P -0.7586
-4.6932 PREPADE VA3S -0.7484
-2.7209 PREPADE VAINF -1.6282
-2.2757 PREPADE VEINF -0.7226
-1.0160 PREPADE VINF -0.0382
-4.9176 PREPADE VPPFP -0.1235
-4.4713 PREPADE VPPFS -0.0247
-3.6651 PREPADE VPPMP -0.0827
-3.7406 PREPADE VPPMS -0.3704
-4.5857 PREPADE VPPRE -0.5738
-2.2695 PREPADE XFAMIL 0.0747
-4.6429 PREPADE XPAYFP 0.1792
-2.0016 PREPADE XPAYFS -0.1748
-2.7008 PREPADE XPAYMS -0.2062
-2.5791 PREPADE XPREF -0.1367
-1.8782 PREPADE XPREM -0.1238
-2.4981 PREPADE XSOC -0.1258
-1.3747 PREPADE XVILLE -0.2574
-1.9629 PREPADE YPFAI -1.8074
-3.8279 PREPADE YPFOR 2.4089
-4.7588 PREPADE ZTRM -1.3891
-2.3645 PREPAU ADV -0.9019
-4.0434 PREPAU ADVPAS 0.0000
-3.2432 PREPAU AINDMS -0.6650
-1.0792 PREPAU AMS -1.0593
-1.3580 PREPAU CHIF -1.0749
-1.6526 PREPAU MOTINC -0.3961
-3.7704 PREPAU NFP -0.1458
-3.3725 PREPAU NFS -0.2170
-3.5663 PREPAU NMP 0.0000
-0.1263 PREPAU NMS -0.7569
-3.4087 PREPAU PREP -0.4728
-3.6348 PREPAU V1S -0.2225
-3.9923 PREPAU V3S 0.0000
-3.4215 PREPAU VINF -0.5745
-3.3181 PREPAU VPPMS -0.3438
-3.8326 PREPAU VPPRE 0.0000
-3.0922 PREPAU XFAMIL -0.1601
-1.2466 PREPAU XPAYMS -0.2655
-3.9688 PREPAU XPREF 0.0000
-3.5663 PREPAU XPREM -0.1075
-1.7305 PREPAU XSOC -0.3550
-2.4037 PREPAU XVILLE -0.2435
-1.8414 PREPAU YPFAI -1.4509
-4.0434 PREPAU YPFOR 3.8260
-2.1554 PREPAUX ADV -1.4147
-1.5093 PREPAUX AFP -1.0353
-3.2445 PREPAUX AINDFP -0.0525
-3.3335 PREPAUX AINDMP -0.4205
-1.3177 PREPAUX AMP -0.8190
-3.1574 PREPAUX AMS -0.9533
-1.5951 PREPAUX CHIF -0.7153
-3.4718 PREPAUX DETFP -0.6600
-1.8443 PREPAUX MOTINC -0.4894
-0.4656 PREPAUX NFP -0.5096
-3.7728 PREPAUX NFS 0.0000
-0.3491 PREPAUX NMP -0.3948
-2.8663 PREPAUX NMS -0.3087
-3.8977 PREPAUX PREP 0.0000
-3.7465 PREPAUX V2S 0.0000
-3.7465 PREPAUX V3S -0.4185
-2.9557 PREPAUX VPPFP -0.8477
-2.6325 PREPAUX VPPMP -0.0455
-3.8977 PREPAUX XFAMIL 0.0000
-2.6152 PREPAUX XPAYFP -0.2578
-1.2572 PREPAUX XPAYMP -0.2715
-2.6077 PREPAUX XSOC 0.0580
-3.2211 PREPAUX XVILLE -0.0015
-1.8078 PREPAUX YPFAI -1.7130
-2.1032 PREPDES ADV -2.0003
-1.8608 PREPDES AFP -1.0048
-3.5298 PREPDES AINDFP -1.0628
-3.5868 PREPDES AINDMP -0.8064
-1.4103 PREPDES AMP -0.3873
-3.5517 PREPDES AMS -0.6216
-1.4763 PREPDES CHIF -0.4566
-3.4093 PREPDES DETFP 0.0616
-3.5056 PREPDES DETMP 0.2915
-4.4401 PREPDES DETMS 0.0000
-1.7875 PREPDES MOTINC -0.5149
-0.4491 PREPDES NFP -0.4593
-3.6294 PREPDES NFS -0.3416
-0.3065 PREPDES NMP -0.3663
-2.9971 PREPDES NMS -0.5516
-4.4121 PREPDES PREP 0.0000
-3.8838 PREPDES V1P -0.2826
-4.0721 PREPDES V2S -0.0341
-4.1391 PREPDES VPPFP 0.0000
-2.6205 PREPDES VPPMP -0.2422
-3.3173 PREPDES XFAMIL -0.1541
-2.2462 PREPDES XPAYFP 0.0407
-2.1079 PREPDES XPAYMP -0.3314
-4.0364 PREPDES XPREF 0.0000
-4.0721 PREPDES XPREM 0.1114
-2.5983 PREPDES XSOC -0.0605
-3.0977 PREPDES XVILLE -0.1265
-1.7622 PREPDES YPFAI -1.9108
-4.4121 PREPDES YPFOR 3.8260
-2.1493 PREPDU ADV -0.6548
-1.2617 PREPDU AMS -0.6233
-1.2366 PREPDU CHIF -1.3460
-4.1954 PREPDU COCO -0.6270
-3.9476 PREPDU DETMS -0.2477
-1.3910 PREPDU MOTINC -0.4861
-3.9769 PREPDU NFP -0.0951
-3.2562 PREPDU NFS -0.4447
-3.9769 PREPDU NMP -0.0360
-0.1417 PREPDU NMS -0.3784
-2.9669 PREPDU PINDMS -0.8579
-4.3093 PREPDU PREFMS -0.4551
-3.1871 PREPDU PREP -0.8691
-3.0226 PREPDU V1S -0.4302
-4.3799 PREPDU V2S -0.4382
-3.9571 PREPDU V3S -0.2392
-3.8322 PREPDU VINF -0.1816
-3.2212 PREPDU VPPMS -0.3172
-4.2881 PREPDU VPPRE 0.0000
-2.7144 PREPDU XFAMIL -0.2734
-3.9476 PREPDU XPAYFS -0.5154
-1.3285 PREPDU XPAYMS -0.0958
-4.1479 PREPDU XPREF -0.1599
-3.3137 PREPDU XPREM 0.3294
-1.3789 PREPDU XSOC -0.3639
-2.4401 PREPDU XVILLE -0.1558
-1.7423 PREPDU YPFAI -1.6352
-4.1790 PREPDU YPFOR 3.5987
-0.8475 V1P ADV -0.9315
-2.8885 V1P ADVNE -0.0657
-1.0104 V1P ADVPAS -0.8719
-2.8885 V1P AFP -0.1554
-3.2797 V1P AFS 0.0000
-2.9165 V1P AINDFP -0.1396
-2.6613 V1P AINDFS -0.2848
-2.0992 V1P AINDMP 0.0014
-2.7602 V1P AINDMS 0.3591
-2.5424 V1P AMP -0.1218
-2.6947 V1P AMS -0.2579
-2.1531 V1P CHIF -0.0716
-1.6990 V1P COCO -0.4185
-1.1410 V1P COSUB -0.3057
-1.8290 V1P DETFP -0.3142
-1.2875 V1P DETFS -0.3045
-1.7281 V1P DETMP -0.1194
-1.2814 V1P DETMS -0.7650
-2.5303 V1P MOTINC 0.0369
-2.2234 V1P NFS -0.1761
-3.3145 V1P NMP 0.0000
-2.4159 V1P NMS -0.1612
-2.9957 V1P PDEMMS -0.4250
-2.1506 V1P PINDMS -0.4840
-1.2734 V1P PPER1P -1.1468
-2.9957 V1P PPER3MS 0.0000
-3.3145 V1P PPER3MP 0.0000
-2.5548 V1P PPOBJFS -0.4214
-1.9312 V1P PPOBJMP -0.3699
-1.7862 V1P PPOBJMS -0.7845
-3.0512 V1P PREFMS -0.1548
-1.2092 V1P PREP -0.1688
-1.1131 V1P PREPADE -0.2147
-2.1950 V1P PREPAU -0.1960
-2.2569 V1P PREPAUX -0.3130
-1.8738 V1P PREPDES -0.7949
-2.4205 V1P PREPDU -0.2089
-2.7215 V1P V3S 0.0000
-2.9312 V1P V3P 0.0000
-2.9023 V1P VE3P 0.0000
-2.8026 V1P VE3S -0.0444
-2.1868 V1P VEINF -0.3970
-0.9432 V1P VINF -0.1941
-2.6694 V1P VPPMP -0.0287
-2.8885 V1P XPREM 0.0711
-1.1772 V1P YPFAI -0.4099
-1.5978 V1P YPFOR 2.2342
-3.2475 V1P ZTRM -0.8451
-1.0413 V1S ADV -0.8742
-2.6438 V1S ADVNE -0.1190
-1.0641 V1S ADVPAS -0.8199
-3.3128 V1S AFP -0.1817
-3.0210 V1S AFS -0.2684
-3.0303 V1S AINDFP 0.0171
-2.7792 V1S AINDFS -0.0644
-2.7900 V1S AINDMP -0.2030
-3.1368 V1S AINDMS -0.5180
-2.1934 V1S AMS -0.7315
-2.5141 V1S CHIF -0.1861
-1.8151 V1S COCO -0.4920
-1.0399 V1S COSUB -0.6512
-2.0647 V1S DETFP -0.4193
-1.5118 V1S DETFS -0.2288
-2.0228 V1S DETMP -0.6879
-1.4798 V1S DETMS -0.4412
-3.1368 V1S DINTFS -0.3401
-3.1490 V1S DINTMS 0.1123
-2.0247 V1S MOTINC -0.1692
-2.4889 V1S NFS -0.2642
-0.8230 V1S NMS -1.6018
-3.0029 V1S PDEMMP -0.1048
-2.4120 V1S PDEMMS -0.7324
-3.4143 V1S PINDMP 0.0000
-2.2088 V1S PINDMS -0.8790
-2.1565 V1S PPER1S -0.7204
-2.6286 V1S PPER2S -0.0369
-3.5791 V1S PPER3MS 0.0000
-3.1879 V1S PPOBJFS -0.1554
-2.1798 V1S PPOBJMP -0.7820
-2.0046 V1S PPOBJMS -0.7947
-3.0118 V1S PREFMS -0.3080
-2.8010 V1S PRELMS 0.0000
-1.4525 V1S PREP -0.1127
-1.2721 V1S PREPADE -0.4977
-2.3057 V1S PREPAU -0.2728
-2.5469 V1S PREPAUX -0.1898
-2.4525 V1S PREPDES -0.5156
-2.6249 V1S PREPDU -0.1705
-2.2031 V1S V3S -0.1764
-3.2459 V1S V3P 0.0000
-3.4378 V1S VA3P 0.0000
-2.5469 V1S VA3S -0.5111
-3.0596 V1S VAINF -0.2632
-3.4143 V1S VE3P 0.0000
-2.6324 V1S VE3S -0.1863
-2.5084 V1S VEINF -0.2057
-1.2974 V1S VINF 0.0153
-3.5791 V1S VPPFS 0.0000
-2.9855 V1S VPPMS -0.0384
-2.5317 V1S XFAMIL -0.2961
-1.7960 V1S XPREF -0.6643
-1.1013 V1S XPREM -0.4870
-2.9077 V1S XSOC -0.1095
-2.9296 V1S XVILLE -0.0855
-0.9812 V1S YPFAI -0.4259
-1.4811 V1S YPFOR 1.8182
-3.2781 V1S ZTRM -1.1139
-1.1348 V2P ADV -0.6398
-2.5601 V2P ADVNE -0.1288
-1.1366 V2P ADVPAS -0.6603
-3.0491 V2P AINDFS -0.4098
-2.7665 V2P AINDMP 0.0000
-2.3221 V2P AMS -0.3330
-2.2040 V2P CHIF -0.1884
-1.7463 V2P COCO -0.3766
-1.3094 V2P COSUB -0.2617
-1.7938 V2P DETFP -0.1392
-1.3380 V2P DETFS -0.0507
-1.6614 V2P DETMP -0.2363
-1.2492 V2P DETMS -0.5300
-2.3087 V2P MOTINC -0.0239
-2.2709 V2P NFS -0.2309
-2.9242 V2P NMP 0.0000
-2.2306 V2P NMS 0.0032
-2.8978 V2P PDEMMP 0.0000
-2.6511 V2P PDEMMS -0.7595
-1.6071 V2P PPER1S -0.6993
-2.0638 V2P PPER1P -0.1598
-0.6639 V2P PPER2P -1.4141
-2.7133 V2P PPER3MS 0.0000
-2.9522 V2P PPER3MP 0.0000
-2.7303 V2P PPOBJFS 0.0000
-1.9464 V2P PPOBJMP -0.2224
-1.8495 V2P PPOBJMS -0.5667
-2.5050 V2P PRELMS -0.3436
-1.4207 V2P PREP -0.0336
-1.3465 V2P PREPADE -0.0831
-2.4470 V2P PREPAU -0.3050
-2.6231 V2P PREPAUX -0.1013
-2.6511 V2P PREPDES -0.3542
-2.5155 V2P PREPDU 0.1977
-2.1838 V2P V3S -0.2147
-2.8495 V2P VA3S -0.0308
-2.9242 V2P VE3S 0.0000
-2.5720 V2P VEINF -0.1471
-1.2685 V2P VINF 0.0174
-2.7133 V2P XFAMIL 0.0247
-2.9242 V2P XPREM 0.0000
-2.8061 V2P XVILLE 0.0000
-0.9419 V2P YPFAI -0.2734
-1.4224 V2P YPFOR 2.3242
-1.4059 V2S ADV -0.1991
-1.5028 V2S ADVPAS -0.0814
-1.9635 V2S AFP 0.0000
-2.0727 V2S AMP 0.0000
-1.3675 V2S COCO -0.0970
-1.9883 V2S COSUB 0.0000
-1.6277 V2S DETFS -0.0732
-2.0427 V2S DETMP 0.0849
-1.7274 V2S DETMS -0.5373
-1.4945 V2S MOTINC -0.0301
-2.0427 V2S NMP 0.0000
-1.9178 V2S NMS 0.0000
-1.8764 V2S PPER1S 0.0000
-1.7274 V2S PPER2S -0.1289
-1.7003 V2S PPOBJMS -0.5187
-1.9883 V2S PRELMP 0.0000
-1.4864 V2S PREP -0.0577
-1.1506 V2S PREPADE -0.0899
-1.8966 V2S V3S 0.0000
-2.1774 V2S V3P 0.0000
-1.9400 V2S VA3S 0.0000
-2.1774 V2S VE3S 0.0000
-1.4945 V2S VINF 0.0000
-0.4546 V2S YPFAI -0.2263
-1.0456 V2S YPFOR 2.8569
-2.1049 V2S ZTRM -0.8129
-0.8071 V3S ADV -1.1691
-3.0215 V3S ADVNE -0.7586
-1.3335 V3S ADVPAS -1.1219
-3.7762 V3S AFP -0.1562
-2.5391 V3S AFS -0.7751
-3.0555 V3S AINDFP -0.4030
-2.6716 V3S AINDFS -0.5434
-2.8508 V3S AINDMP -0.6470
-2.9038 V3S AINDMS -0.8729
-3.4078 V3S AMP -0.3305
-2.0929 V3S AMS -1.0469
-1.8686 V3S CHIF -0.8395
-1.8709 V3S COCO -1.0541
-1.3111 V3S COSUB -1.0800
-1.7760 V3S DETFP -0.6436
-1.1017 V3S DETFS -0.4165
-1.7179 V3S DETMP -0.3557
-1.0841 V3S DETMS -0.6075
-4.3670 V3S DINTFP -0.2060
-3.4867 V3S DINTFS -0.7411
-4.4667 V3S DINTMP -0.3412
-3.2547 V3S DINTMS -0.6502
-2.0834 V3S MOTINC -0.4958
-3.6548 V3S NFP -0.5583
-2.1724 V3S NFS -0.8103
-3.4177 V3S NMP -0.3134
-1.6842 V3S NMS -1.0416
-4.3348 V3S PDEMFP -0.1615
-2.8194 V3S PDEMFS -0.6026
-3.6839 V3S PDEMMP -0.2046
-3.3067 V3S PDEMMS -0.3533
-3.9088 V3S PINDFP -0.3504
-3.4667 V3S PINDFS -0.8662
-4.3898 V3S PINDMP -0.1827
-2.2053 V3S PINDMS -1.2662
-4.7819 V3S PINTMS -1.1684
-4.1518 V3S PPER1S -0.0897
-4.4667 V3S PPER1P 0.0000
-4.0135 V3S PPER2S -0.1354
-2.6055 V3S PPER3FS -1.4407
-1.9184 V3S PPER3MS -1.6781
-4.5601 V3S PPER3MP 0.0000
-2.8799 V3S PPOBJFP -1.8189
-2.5678 V3S PPOBJFS -1.7839
-2.6908 V3S PPOBJMP -1.1570
-2.2351 V3S PPOBJMS -1.8462
-2.5556 V3S PREFFS -2.0947
-1.9770 V3S PREFMS -1.0783
-4.0495 V3S PRELFS -0.0964
-4.8441 V3S PRELMP 0.0000
-3.0190 V3S PRELMS -0.5975
-1.1518 V3S PREP -1.0085
-0.9612 V3S PREPADE -0.3841
-2.0228 V3S PREPAU -0.0585
-2.2585 V3S PREPAUX -0.0982
-2.1289 V3S PREPDES -1.2868
-2.3137 V3S PREPDU -0.1163
-4.5963 V3S V1S 0.0000
-2.9849 V3S V3S -0.2459
-3.8213 V3S V3P -0.1032
-4.2021 V3S VA3P -0.0802
-3.4639 V3S VA3S -0.1853
-2.5511 V3S VAINF -1.1196
-3.9757 V3S VE3P -0.0030
-3.1835 V3S VE3S -0.5893
-1.7593 V3S VEINF -1.4640
-1.0927 V3S VINF -0.1913
-4.2859 V3S VPPFP 0.0213
-2.8003 V3S VPPFS -0.6492
-3.9942 V3S VPPMP -0.0826
-2.6499 V3S VPPMS -0.9708
-3.9712 V3S VPPRE -0.1017
-3.0072 V3S XFAMIL -0.4232
-4.2768 V3S XPAYFS -0.2275
-4.1872 V3S XPAYMS -0.1380
-2.8745 V3S XPREF -0.4118
-2.2008 V3S XPREM -0.2914
-3.4737 V3S XSOC -0.0137
-3.1135 V3S XVILLE -0.2518
-1.1254 V3S YPFAI -1.1794
-1.7131 V3S YPFOR 0.7851
-3.5742 V3S ZTRM -2.0828
-0.7863 V3P ADV -1.3346
-2.8962 V3P ADVNE -0.5373
-1.3308 V3P ADVPAS -1.3275
-2.4935 V3P AFP -0.7206
-3.2216 V3P AFS -0.6338
-2.8839 V3P AINDFP 0.1458
-2.6608 V3P AINDFS -0.5613
-2.4289 V3P AINDMP -0.5154
-2.8906 V3P AINDMS -1.5528
-2.2522 V3P AMP -0.7629
-2.5780 V3P AMS -0.8200
-2.0139 V3P CHIF -0.9749
-1.8081 V3P COCO -0.8803
-1.3870 V3P COSUB -0.4753
-1.5547 V3P DETFP -0.3457
-1.1634 V3P DETFS -0.4315
-1.3568 V3P DETMP -0.2298
-1.2186 V3P DETMS -0.6917
-4.4402 V3P DINTMS 0.0000
-2.5907 V3P MOTINC -0.1576
-3.1492 V3P NFP -0.4721
-2.1085 V3P NFS -0.5852
-2.7549 V3P NMP -0.5216
-2.1659 V3P NMS -0.6067
-3.6428 V3P PDEMFP -0.1083
-3.8584 V3P PDEMFS -0.0435
-3.1553 V3P PDEMMP -0.1095
-3.8095 V3P PDEMMS -0.1621
-3.5895 V3P PINDFP -0.2349
-3.5840 V3P PINDFS -0.2243
-4.0667 V3P PINDMP -0.2151
-2.5721 V3P PINDMS -0.9979
-2.5980 V3P PPER3FP -0.9573
-3.6892 V3P PPER3MS -0.3754
-1.9740 V3P PPER3MP -1.6792
-2.9847 V3P PPOBJFP -1.0538
-2.7758 V3P PPOBJFS -1.4099
-2.4398 V3P PPOBJMP -1.0030
-3.0407 V3P PPOBJMS -1.0052
-2.7064 V3P PREFMP -2.2346
-1.9215 V3P PREFMS -1.8255
-4.1392 V3P PRELFS 0.0000
-3.7574 V3P PRELMP -0.2372
-4.3055 V3P PRELMS 0.0000
-1.0479 V3P PREP -0.7604
-0.9564 V3P PREPADE -0.6495
-2.0186 V3P PREPAU -0.1680
-2.1776 V3P PREPAUX -0.0180
-1.8049 V3P PREPDES -1.2829
-2.3218 V3P PREPDU 0.0705
-3.5785 V3P V3S -0.1460
-3.0133 V3P V3P -0.2730
-3.6008 V3P VA3P 0.0979
-4.0667 V3P VA3S -0.2250
-2.5431 V3P VAINF -1.0727
-3.2145 V3P VE3P 0.0101
-3.6243 V3P VE3S -0.1046
-1.6732 V3P VEINF -1.5605
-1.1202 V3P VINF -0.3360
-2.8763 V3P VPPFP -0.2796
-2.4313 V3P VPPMP -0.5689
-4.1014 V3P VPPMS 0.0000
-4.1392 V3P VPPRE 0.0000
-3.5678 V3P XFAMIL -0.0842
-4.2264 V3P XPAYMS 0.0000
-3.5574 V3P XPREF -0.1206
-2.9644 V3P XPREM -0.1039
-3.9765 V3P XSOC 0.0000
-3.1720 V3P XVILLE -0.1915
-1.1569 V3P YPFAI -0.9626
-1.6040 V3P YPFOR 1.1524
-3.7492 V3P ZTRM -1.4313
-0.8387 VA1P ADV -1.1269
-0.9736 VA1P ADVPAS -1.0059
-2.1658 VA1P AINDFS -1.1567
-2.0051 VA1P AINDMP -0.3487
-2.4008 VA1P AINDMS -0.0757
-2.5447 VA1P CHIF -0.0262
-2.3791 VA1P COSUB 0.0000
-1.9876 VA1P DETFP -0.7952
-1.4429 VA1P DETFS -0.6032
-1.8779 VA1P DETMP -1.2451
-1.5235 VA1P DETMS -0.5082
-2.7878 VA1P MOTINC 0.0000
-1.8881 VA1P NFS -0.4622
-1.5104 VA1P NMS -0.6031
-2.0281 VA1P PREP -0.1695
-1.7489 VA1P PREPADE -0.3989
-2.6117 VA1P PREPDU -0.8250
-1.9127 VA1P VPPFP -0.0469
-1.7247 VA1P VPPFS -0.1175
-1.5250 VA1P VPPMP -0.3274
-0.3157 VA1P VPPMS -0.4602
-1.9876 VA1P YPFAI -0.6902
-0.7810 VA1S ADV -1.2336
-1.0854 VA1S ADVPAS -1.0185
-2.3397 VA1S AINDFS -0.7047
-3.1496 VA1S AMS 0.0000
-1.9580 VA1S CHIF -0.7301
-2.0606 VA1S COCO -0.5108
-2.3848 VA1S COSUB -0.1257
-2.8687 VA1S DETFP -0.1046
-1.4834 VA1S DETFS -0.4607
-2.9868 VA1S DETMP -0.2441
-1.6077 VA1S DETMS -0.4884
-2.8485 VA1S MOTINC 0.0000
-1.5988 VA1S NFS -1.0189
-1.9405 VA1S NMS -0.5209
-2.3649 VA1S PINDMS -0.8013
-2.0671 VA1S PPER1S -0.9463
-3.1118 VA1S PPOBJMS 0.0000
-2.1656 VA1S PREP -0.2762
-2.1739 VA1S PREPADE -0.2229
-2.1456 VA1S PREPDES -0.4453
-2.4920 VA1S PREPDU -1.1438
-3.0770 VA1S V3S 0.0000
-2.1909 VA1S VPPFP -0.0990
-1.7241 VA1S VPPFS 0.0378
-2.0034 VA1S VPPMP -0.0479
-0.2629 VA1S VPPMS -0.5690
-2.3276 VA1S YPFAI -0.6239
-0.8951 VA2P ADV -0.5240
-1.0556 VA2P ADVPAS -0.4209
-2.0073 VA2P CHIF 0.0000
-2.1099 VA2P COSUB 0.0000
-1.2904 VA2P DETFS -0.3017
-1.2817 VA2P DETMS -0.1208
-1.4535 VA2P NFS -0.6320
-1.7545 VA2P NMS -0.2318
-1.4599 VA2P PPER2P -0.6330
-1.9638 VA2P PREP 0.0000
-2.0307 VA2P PREPADE 0.0000
-1.6525 VA2P PREPDES -0.8116
-2.0819 VA2P VPPFP 0.0000
-1.7178 VA2P VPPFS 0.0000
-1.7946 VA2P VPPMP 0.0000
-0.3265 VA2P VPPMS -0.0520
-0.8607 VA2S ADV -0.2820
-0.9747 VA2S ADVPAS -0.2382
-1.2757 VA2S MOTINC 0.0000
-1.4104 VA2S PPER2S 0.0000
-0.3949 VA2S VPPMS -0.1013
-0.8390 VA2S XVILLE 0.0652
-0.8592 VA3P ADV -1.7094
-1.2465 VA3P ADVPAS -1.5703
-3.7793 VA3P AFS -1.2367
-3.0426 VA3P AINDFP -0.1773
-2.7954 VA3P AINDFS -0.4528
-2.5618 VA3P AINDMP -0.5293
-4.0426 VA3P AMP 0.0000
-3.0318 VA3P CHIF -1.1463
-2.2560 VA3P COCO -0.9284
-2.5777 VA3P COSUB -0.7231
-2.9043 VA3P DETFP -0.5537
-1.8238 VA3P DETFS -1.1494
-2.6490 VA3P DETMP -0.4578
-1.8220 VA3P DETMS -1.0051
-2.8164 VA3P MOTINC -0.2036
-2.1709 VA3P NFS -0.8088
-1.8679 VA3P NMS -0.9375
-2.3371 VA3P PINDMS -1.2930
-2.7379 VA3P PPER3FP -0.8969
-2.0599 VA3P PPER3MP -1.5381
-3.2766 VA3P PPOBJMP -0.4072
-2.1381 VA3P PREP -0.5664
-2.0989 VA3P PREPADE -0.7217
-3.5903 VA3P PREPAU -0.8505
-2.2404 VA3P PREPDES -0.6616
-2.6220 VA3P PREPDU -0.5465
-3.7068 VA3P V3S 0.0000
-1.4322 VA3P VPPFP -1.0262
-2.1022 VA3P VPPFS -0.1488
-1.9562 VA3P VPPMP -0.2579
-0.2075 VA3P VPPMS -0.9640
-1.7190 VA3P YPFAI -1.0348
-0.8941 VA3S ADV -1.7135
-4.0908 VA3S ADVNE -0.4750
-1.2922 VA3S ADVPAS -1.7556
-3.2778 VA3S AFS -2.2386
-3.2157 VA3S AINDFP -0.5539
-2.6724 VA3S AINDFS -0.6234
-3.3694 VA3S AINDMP -0.4527
-2.7955 VA3S AINDMS -1.3475
-4.0659 VA3S AMP -0.2072
-2.5695 VA3S AMS -1.0878
-1.7652 VA3S CHIF -1.1684
-2.2198 VA3S COCO -1.0919
-2.4356 VA3S COSUB -0.6240
-2.3892 VA3S DETFP -0.3557
-1.4412 VA3S DETFS -0.4249
-2.2975 VA3S DETMP -0.4821
-1.6107 VA3S DETMS -1.0127
-4.5083 VA3S DINTFP -0.6832
-4.1598 VA3S DINTFS -0.6442
-4.5431 VA3S DINTMP -0.7071
-3.9147 VA3S DINTMS -1.1304
-2.3225 VA3S MOTINC -0.4629
-4.0782 VA3S NFP -0.7455
-2.0442 VA3S NFS -0.6332
-3.8229 VA3S NMP -0.5883
-1.4274 VA3S NMS -1.3647
-4.5431 VA3S PDEMFP 0.0000
-4.3435 VA3S PDEMFS 0.0000
-3.1554 VA3S PDEMMP -0.7294
-4.0540 VA3S PDEMMS -0.3454
-4.3670 VA3S PINDFS -1.2232
-2.5920 VA3S PINDMS -1.2846
-3.9595 VA3S PPER1P -0.8159
-4.2798 VA3S PPER2P 0.0000
-3.0482 VA3S PPER3FS -0.9254
-4.3670 VA3S PPER3FP 0.0000
-2.4410 VA3S PPER3MS -1.3875
-3.3867 VA3S PPOBJFS -1.6612
-3.6052 VA3S PPOBJMP -0.7091
-2.8573 VA3S PPOBJMS -1.9163
-4.3000 VA3S PREFFS -1.2323
-4.1037 VA3S PRELMP -0.1283
-3.0832 VA3S PRELMS -0.6433
-2.1220 VA3S PREP -0.7263
-2.1561 VA3S PREPADE -1.0039
-4.0202 VA3S PREPAU 0.0790
-2.2016 VA3S PREPDES -1.5358
-2.7357 VA3S PREPDU -0.6525
-3.4855 VA3S V3S -0.4140
-2.2830 VA3S VINF -0.4574
-2.5848 VA3S VPPFP -0.1127
-1.5985 VA3S VPPFS -0.5366
-2.3067 VA3S VPPMP -0.1969
-0.2612 VA3S VPPMS -1.7924
-3.9062 VA3S XFAMIL -0.4981
-3.5730 VA3S XPAYMS -0.7009
-4.3918 VA3S XPREF 0.0000
-3.6538 VA3S XPREM -0.4791
-4.2420 VA3S XSOC -0.8009
-2.1641 VA3S XVILLE -1.1809
-1.7228 VA3S YPFAI -1.1617
-1.7450 VA3S YPFOR 1.1529
-4.2798 VA3S ZTRM -1.0414
-1.1313 VAINF ADV -1.3839
-1.6970 VAINF ADVPAS -0.9146
-2.1781 VAINF DETFS -1.2125
-2.1751 VAINF DETMS -1.2427
-2.0812 VAINF NFS -0.4829
-1.0628 VAINF NMS -1.1552
-2.6375 VAINF PREP -1.1910
-1.6122 VAINF PREPADE -1.3943
-1.9980 VAINF PREPDES -1.5166
-2.6930 VAINF VPPFP -0.1154
-2.0464 VAINF VPPFS -0.0790
-2.2361 VAINF VPPMP 0.0091
-0.1283 VAINF VPPMS -0.7905
-0.6271 VE1P ADV -0.8859
-0.9845 VE1P ADVPAS -0.8776
-1.4865 VE1P AINDMP -0.2778
-0.9579 VE1P AMP -0.7649
-2.6605 VE1P AMS 0.0000
-2.0585 VE1P CHIF 0.1609
-1.9937 VE1P COCO 0.0000
-2.0285 VE1P COSUB -0.0963
-1.7422 VE1P DETFS -0.2735
-1.6894 VE1P DETMP -0.1023
-1.6220 VE1P DETMS 0.2655
-2.6927 VE1P MOTINC 0.0000
-2.6605 VE1P NFP 0.0000
-2.0358 VE1P NMP -0.1248
-2.7653 VE1P PINDMP 0.0000
-1.8023 VE1P PPER1P -0.4825
-2.3295 VE1P PPOBJMP -0.2436
-1.1652 VE1P PREP -0.3425
-1.7460 VE1P PREPADE -0.2927
-2.0213 VE1P PREPAU -0.1081
-2.7653 VE1P PREPAUX 0.0000
-1.8289 VE1P PREPDES -0.5682
-2.7275 VE1P VPPFP 0.0000
-0.6541 VE1P VPPMP -0.3955
-1.9741 VE1P VPPMS -0.1616
-1.6306 VE1P YPFAI -0.1878
-1.9678 VE1P YPFOR 3.1912
-0.7117 VE1S ADV -1.0199
-0.9092 VE1S ADVPAS -0.6863
-1.8062 VE1S AFS -0.7001
-0.8479 VE1S AMS -0.7184
-2.1879 VE1S COSUB -0.4174
-1.8289 VE1S DETFS -0.6263
-1.1835 VE1S DETMS -0.2629
-2.3466 VE1S MOTINC 0.0378
-2.6228 VE1S NFS 0.0000
-1.4615 VE1S NMS -0.6495
-2.4157 VE1S PINDMS 0.0000
-2.7989 VE1S PPER1S 0.0000
-2.7989 VE1S PPOBJMS 0.0000
-1.4172 VE1S PREP -0.2254
-1.7382 VE1S PREPADE -0.4353
-2.4010 VE1S PREPAU -0.1801
-1.2927 VE1S VPPFS -0.1233
-0.5756 VE1S VPPMS -0.6625
-2.2549 VE1S YPFAI -0.1740
-2.5164 VE1S YPFOR 3.6684
-0.7474 VE2P ADV -0.4671
-1.0741 VE2P ADVPAS -0.1709
-1.9573 VE2P AFS 0.0000
-1.3253 VE2P AMP -0.3009
-1.0243 VE2P AMS -0.4629
-1.8730 VE2P COCO 0.0000
-1.7610 VE2P DETFS -0.0007
-1.8993 VE2P DETMP 0.0569
-1.1167 VE2P DETMS -0.0267
-1.3711 VE2P NMS -0.2991
-0.9929 VE2P PPER2P -0.4349
-1.5124 VE2P PREP -0.1102
-1.7233 VE2P PREPADE 0.0000
-1.8482 VE2P PREPDES -0.6586
-1.2284 VE2P VPPMP -0.2108
-0.9699 VE2P VPPMS -0.3011
-1.5353 VE2P YPFAI 0.0000
-1.9895 VE2P YPFOR 3.9161
-0.8798 VE2S ADV -0.0676
-1.1730 VE2S ADVPAS 0.0000
-0.9389 VE2S AMS -0.4299
-1.4160 VE2S DETFS 0.2345
-0.9867 VE2S DETMS 0.0610
-1.0074 VE2S MOTINC -0.1353
-1.4740 VE2S NFS 0.0000
-1.2777 VE2S NMS 0.0000
-1.1577 VE2S PPER2S 0.0000
-1.5062 VE2S PREP 0.0000
-1.2399 VE2S VPPMS 0.0000
-1.4160 VE2S YPFAI 0.0000
-0.6445 VE3P ADV -1.6667
-1.1952 VE3P ADVPAS -1.7326
-1.4289 VE3P AFP -1.3331
-2.9459 VE3P AINDFP 0.2609
-4.0658 VE3P AINDFS 0.0000
-2.4370 VE3P AINDMP -0.4046
-3.9031 VE3P AINDMS -0.1658
-1.2137 VE3P AMP -0.8008
-4.0658 VE3P AMS 0.0000
-2.1871 VE3P CHIF -0.2622
-2.1051 VE3P COCO -0.8086
-2.2069 VE3P COSUB -0.7073
-1.7506 VE3P DETFP -0.3021
-1.9677 VE3P DETFS -0.2471
-1.4726 VE3P DETMP -0.3726
-1.9870 VE3P DETMS -0.5307
-2.4608 VE3P MOTINC -0.2717
-2.6554 VE3P NFP -0.4339
-2.8544 VE3P NFS -0.3343
-2.2652 VE3P NMP -0.4373
-3.2380 VE3P NMS -0.0763
-2.7436 VE3P PDEMFP -0.5353
-2.3830 VE3P PDEMMP -0.4436
-3.4170 VE3P PINDFP -0.1418
-3.8520 VE3P PINDFS 0.0000
-3.8285 VE3P PINDMP -0.3518
-3.4445 VE3P PINDMS -0.2596
-2.3567 VE3P PPER3FP -1.0488
-2.0255 VE3P PPER3MP -1.2840
-2.9769 VE3P PPOBJFP -0.8316
-2.6973 VE3P PPOBJMP -1.1229
-2.9642 VE3P PPOBJMS -0.6639
-1.7069 VE3P PREP -0.3925
-1.6262 VE3P PREPADE -0.5304
-2.3821 VE3P PREPAU -0.6741
-3.0503 VE3P PREPAUX -0.2033
-1.7404 VE3P PREPDES -1.9456
-3.1530 VE3P PREPDU -0.4009
-0.9283 VE3P VPPFP -0.3916
-3.5390 VE3P VPPFS 0.0000
-0.6009 VE3P VPPMP -0.3701
-2.1799 VE3P VPPMS -0.6151
-4.0281 VE3P XFAMIL 0.0000
-4.0658 VE3P XPREF 0.0000
-3.3148 VE3P XPREM -0.3121
-3.8062 VE3P XSOC 0.0000
-3.9031 VE3P XVILLE -0.3391
-1.5254 VE3P YPFAI -0.8790
-2.9340 VE3P YPFOR 2.8569
-0.6886 VE3S ADV -1.8865
-4.2596 VE3S ADVNE 0.0000
-1.1313 VE3S ADVPAS -1.3438
-1.5382 VE3S AFS -1.1576
-3.1095 VE3S AINDFS 0.1540
-3.9681 VE3S AINDMP 0.1049
-3.1916 VE3S AINDMS -0.5658
-4.1742 VE3S AMP -0.1799
-1.1011 VE3S AMS -0.8966
-2.2777 VE3S CHIF -1.0227
-2.0061 VE3S COCO -1.1167
-1.6220 VE3S COSUB -0.5408
-3.3833 VE3S DETFP 0.2649
-1.1805 VE3S DETFS -0.4987
-3.5210 VE3S DETMP 0.1109
-1.0916 VE3S DETMS -0.8867
-2.3724 VE3S MOTINC -0.5982
-2.4395 VE3S NFS -0.5852
-4.5800 VE3S NMP 0.0000
-1.8337 VE3S NMS -0.9361
-2.2329 VE3S PDEMFS -0.8685
-2.5610 VE3S PDEMMS -1.6467
-2.8535 VE3S PINDFS -1.5741
-2.3134 VE3S PINDMS -2.1484
-2.3497 VE3S PPER3FS -1.4035
-2.0277 VE3S PPER3MS -1.8891
-2.4023 VE3S PPOBJFS -1.3023
-3.2269 VE3S PPOBJMP -0.8188
-2.1694 VE3S PPOBJMS -1.4130
-3.4630 VE3S PREFMS -1.1090
-4.3203 VE3S PRELMP 0.0000
-3.6671 VE3S PRELMS -0.4247
-1.5459 VE3S PREP -0.6323
-1.3644 VE3S PREPADE -0.7170
-2.3771 VE3S PREPAU -0.5667
-3.0139 VE3S PREPAUX -0.1584
-2.9662 VE3S PREPDES -0.4053
-2.6590 VE3S PREPDU -0.5130
-3.7763 VE3S V3S 0.0000
-4.0416 VE3S VEINF -0.1358
-2.3736 VE3S VINF -0.2864
-3.9981 VE3S VPPFP 0.0000
-1.0793 VE3S VPPFS -0.1966
-3.4453 VE3S VPPMP 0.0463
-0.8146 VE3S VPPMS -1.4139
-3.5422 VE3S VPPRE -0.9141
-3.4367 VE3S XFAMIL -0.3593
-3.4910 VE3S XPREF -0.1774
-2.7658 VE3S XPREM -0.1820
-3.9224 VE3S XSOC -0.0048
-3.4227 VE3S XVILLE -0.2662
-1.4629 VE3S YPFAI -1.1432
-2.7107 VE3S YPFOR 2.1195
-4.3426 VE3S ZTRM -0.9777
-0.9389 VEINF ADV -1.0294
-2.0437 VEINF ADVPAS -0.3716
-2.1042 VEINF AFP -0.7181
-1.6759 VEINF AFS -0.5850
-3.4957 VEINF AINDMP 0.0000
-1.7303 VEINF AMP -0.8493
-1.1893 VEINF AMS -0.9638
-3.6606 VEINF CHIF 0.0000
-2.6346 VEINF COCO -0.1735
-1.8994 VEINF COSUB -0.4690
-2.5440 VEINF DETFP 0.4747
-1.4840 VEINF DETFS -0.5275
-2.1982 VEINF DETMP -0.3889
-1.2733 VEINF DETMS -0.8509
-2.3595 VEINF MOTINC -0.1976
-3.0341 VEINF NFP -0.2400
-2.3336 VEINF NFS -0.4297
-2.5466 VEINF NMP -0.1483
-1.8623 VEINF NMS -0.5380
-3.4735 VEINF PDEMFP -0.3834
-2.5623 VEINF PDEMFS -0.4642
-3.5192 VEINF PDEMMP 0.0000
-2.6639 VEINF PDEMMS -0.9614
-3.4321 VEINF PINDFS -0.3963
-3.0111 VEINF PINDMS -0.5687
-3.7331 VEINF PPER3FS 0.0000
-3.2063 VEINF PPOBJFS -0.2885
-3.4735 VEINF PPOBJMP 0.0000
-2.9232 VEINF PPOBJMS -0.2279
-1.8256 VEINF PREP -0.1326
-1.6666 VEINF PREPADE -0.4453
-2.4889 VEINF PREPAU -0.8144
-3.3431 VEINF PREPAUX -0.0944
-2.3447 VEINF PREPDES -0.6519
-3.0755 VEINF PREPDU -0.2705
-1.2094 VEINF VPPFP -0.7422
-0.8715 VEINF VPPFS -0.8442
-0.9703 VEINF VPPMP -0.6344
-0.6552 VEINF VPPMS -1.0053
-3.3943 VEINF VPPRE 0.0000
-3.2430 VEINF XPREM -0.1771
-3.6606 VEINF XVILLE 0.0000
-1.4128 VEINF YPFAI -0.7578
-2.1845 VEINF YPFOR 2.4401
-1.2418 VINF ADV -1.1405
-3.0576 VINF ADVNE -0.6091
-4.1291 VINF ADVPAS -1.3058
-3.2721 VINF AFP -0.2741
-2.8076 VINF AFS -0.8182
-2.7404 VINF AINDFP -0.4737
-2.6180 VINF AINDFS -0.4577
-2.6357 VINF AINDMP -0.8112
-2.7132 VINF AINDMS -0.7904
-2.9555 VINF AMP -0.5861
-2.3242 VINF AMS -0.8939
-2.0343 VINF CHIF -0.7510
-1.8579 VINF COCO -1.1972
-1.3597 VINF COSUB -0.7809
-1.2922 VINF DETFP -1.0311
-0.8368 VINF DETFS -0.6681
-1.2077 VINF DETMP -1.0164
-0.8825 VINF DETMS -1.2646
-4.0398 VINF DINTFP -0.2556
-3.8319 VINF DINTFS -0.0196
-3.9928 VINF DINTMP -0.0110
-3.8475 VINF DINTMS -0.0893
-2.4356 VINF MOTINC -0.3533
-3.3156 VINF NFP -0.6016
-1.9548 VINF NFS -0.9484
-3.0897 VINF NMP -0.6050
-1.9350 VINF NMS -0.8044
-3.7777 VINF PDEMFP -0.0084
-2.4641 VINF PDEMFS -0.8700
-3.1003 VINF PDEMMP -0.5679
-3.1681 VINF PDEMMS -0.4259
-3.4905 VINF PINDFP -0.1909
-3.4472 VINF PINDFS -1.0609
-3.4887 VINF PINDMP -0.4663
-2.6222 VINF PINDMS -0.8125
-4.5047 VINF PINTMS -1.3725
-4.3664 VINF PPER1S -0.1581
-4.0996 VINF PPER3FS -0.2818
-3.5505 VINF PPER3MS -0.2881
-4.1947 VINF PPER3MP -0.1554
-3.8130 VINF PPOBJFP -0.3433
-2.9464 VINF PPOBJFS -1.0593
-2.3196 VINF PPOBJMP -0.9174
-2.9409 VINF PPOBJMS -0.9280
-2.7091 VINF PREFFS -2.6327
-2.9336 VINF PREFMS -1.0904
-4.4536 VINF PRELFP 0.0000
-3.9555 VINF PRELMP 0.0049
-2.9202 VINF PRELMS -0.3294
-0.9921 VINF PREP -1.0621
-1.0157 VINF PREPADE -0.2935
-1.8547 VINF PREPAU -0.1455
-1.9537 VINF PREPAUX -0.3079
-1.9427 VINF PREPDES -1.3023
-2.1528 VINF PREPDU -0.1769
-2.9385 VINF V3S -0.4311
-3.5029 VINF V3P -0.1433
-4.0099 VINF VA3P -0.1120
-3.6345 VINF VA3S -0.2701
-3.5065 VINF VE3P -0.0268
-2.9581 VINF VE3S -0.7236
-3.3522 VINF VEINF -0.2208
-1.5022 VINF VINF -0.7139
-3.8130 VINF VPPFP -0.0034
-3.4584 VINF VPPFS -0.1707
-3.3704 VINF VPPMP -0.0852
-3.0035 VINF VPPMS -0.5698
-4.1446 VINF VPPRE -0.0326
-3.2555 VINF XFAMIL -0.3159
-4.3664 VINF XPAYFS -0.1691
-3.9355 VINF XPAYMS 0.0400
-3.4504 VINF XPREF -0.1521
-2.7727 VINF XPREM -0.1991
-3.6131 VINF XSOC -0.1370
-2.8802 VINF XVILLE -0.3756
-1.0527 VINF YPFAI -1.1460
-1.3221 VINF YPFOR 0.4673
-3.2753 VINF ZTRM -2.3085
-1.3871 VPPFP ADV -1.1362
-2.5176 VPPFP ADVNE -0.8632
-1.9192 VPPFP AFP -0.9421
-3.1900 VPPFP AINDFP -0.0215
-3.0468 VPPFP AINDFS -0.4349
-3.7174 VPPFP AINDMP -0.1227
-3.4280 VPPFP AINDMS -0.5299
-2.7556 VPPFP CHIF -0.0863
-1.4991 VPPFP COCO -0.7244
-1.7688 VPPFP COSUB -0.3334
-1.8951 VPPFP DETFP -0.5603
-1.7267 VPPFP DETFS -0.0497
-3.0005 VPPFP DETMP -0.3602
-2.1287 VPPFP DETMS -0.3712
-2.8856 VPPFP MOTINC 0.0382
-3.0824 VPPFP NFP -0.1485
-2.8143 VPPFP NFS -0.1325
-3.2886 VPPFP NMP -0.0838
-2.1611 VPPFP NMS -0.6261
-3.7657 VPPFP PDEMFP 0.0000
-3.9170 VPPFP PINDFP 0.0000
-3.0617 VPPFP PINDFS -0.8090
-3.7657 VPPFP PPER3FP -0.5167
-2.9063 VPPFP PPER3MS -1.0988
-2.3909 VPPFP PPOBJFP -1.1478
-3.2328 VPPFP PPOBJMS -0.2900
-2.5383 VPPFP PREFMS -0.5106
-2.6345 VPPFP PRELFP -0.2734
-3.7409 VPPFP PRELFS -0.2214
-3.3834 VPPFP PRELMP -0.6700
-0.4538 VPPFP PREP -1.1560
-0.9196 VPPFP PREPADE -0.5106
-1.5815 VPPFP PREPAU -0.1033
-1.7090 VPPFP PREPAUX -0.0011
-2.1734 VPPFP PREPDES -0.6293
-2.1063 VPPFP PREPDU -0.4132
-2.8201 VPPFP V3S -0.1281
-2.1120 VPPFP V3P -0.2486
-2.5413 VPPFP VA3P -0.1303
-3.1968 VPPFP VA3S -0.2240
-2.3213 VPPFP VE3P -0.5604
-2.8924 VPPFP VE3S -0.2249
-3.8822 VPPFP VEINF 0.0000
-2.9170 VPPFP VINF -0.2115
-1.3046 VPPFP VPPFP -0.6907
-3.6538 VPPFP VPPMS -0.2643
-2.9393 VPPFP VPPRE -0.0565
-3.9548 VPPFP XFAMIL 0.0000
-3.5338 VPPFP XPREM -0.1458
-0.8534 VPPFP YPFAI -0.7332
-1.0911 VPPFP YPFOR 1.1250
-2.8563 VPPFP ZTRM -1.8388
-1.3337 VPPFS ADV -1.3147
-2.8422 VPPFS ADVNE -0.5788
-1.8511 VPPFS AFS -0.7498
-3.3029 VPPFS AINDFS -0.6839
-3.6453 VPPFS AINDMP -0.4972
-3.6858 VPPFS AINDMS -0.5745
-4.2572 VPPFS AMP 0.0000
-3.6965 VPPFS AMS -0.1750
-2.6396 VPPFS CHIF -0.7746
-1.6773 VPPFS COCO -0.8931
-1.6365 VPPFS COSUB -0.5378
-3.0290 VPPFS DETFP -0.5833
-1.5297 VPPFS DETFS -0.0229
-2.7042 VPPFS DETMP -0.3115
-1.8195 VPPFS DETMS -0.5793
-2.4622 VPPFS MOTINC -0.2276
-2.3580 VPPFS NFS -0.3850
-4.1846 VPPFS NMP 0.0000
-1.9778 VPPFS NMS -0.6195
-3.5910 VPPFS PDEMFS -0.0586
-4.1225 VPPFS PDEMMS -0.2593
-4.1524 VPPFS PINDFS -0.5680
-3.8672 VPPFS PINDMS -0.3670
-3.8836 VPPFS PINTMS -0.8448
-3.3541 VPPFS PPER3FS -0.5665
-2.5694 VPPFS PPER3MS -1.0259
-3.0605 VPPFS PPOBJFP -1.3877
-3.8361 VPPFS PPOBJFS 0.0000
-3.9561 VPPFS PPOBJMP 0.0000
-3.6753 VPPFS PPOBJMS -0.3433
-2.9275 VPPFS PREFMS -0.7224
-2.6492 VPPFS PRELFS 0.1027
-0.4590 VPPFS PREP -1.1424
-0.8362 VPPFS PREPADE -0.5510
-1.5546 VPPFS PREPAU -0.1779
